{
	"nb_networks":6,
	"networks": [
		{
			"characters":"abcdef",
			"nb_inputs":1,
			"nb_layers":4,
			"layers": [
				{
					"nb_neurones":30,
					"neurones": [
						{
							"bias":-0.707964, "activationFunction":5, "nb_weights":1,
							"weights": [-0.125233]
						},
						{
							"bias":-0.842292, "activationFunction":5, "nb_weights":1,
							"weights": [-0.120759]
						},
						{
							"bias":-0.072946, "activationFunction":5, "nb_weights":1,
							"weights": [-0.287885]
						},
						{
							"bias":-0.502329, "activationFunction":5, "nb_weights":1,
							"weights": [-0.102400]
						},
						{
							"bias":-0.439469, "activationFunction":5, "nb_weights":1,
							"weights": [-0.409807]
						},
						{
							"bias":0.086073, "activationFunction":5, "nb_weights":1,
							"weights": [0.624387]
						},
						{
							"bias":-0.629597, "activationFunction":5, "nb_weights":1,
							"weights": [-0.014634]
						},
						{
							"bias":-0.336076, "activationFunction":5, "nb_weights":1,
							"weights": [0.360887]
						},
						{
							"bias":-0.640579, "activationFunction":5, "nb_weights":1,
							"weights": [-0.163317]
						},
						{
							"bias":-0.552101, "activationFunction":5, "nb_weights":1,
							"weights": [-0.729705]
						},
						{
							"bias":0.050717, "activationFunction":5, "nb_weights":1,
							"weights": [-0.021352]
						},
						{
							"bias":-0.966309, "activationFunction":5, "nb_weights":1,
							"weights": [0.272581]
						},
						{
							"bias":-0.943303, "activationFunction":5, "nb_weights":1,
							"weights": [0.375017]
						},
						{
							"bias":-0.226164, "activationFunction":5, "nb_weights":1,
							"weights": [0.378658]
						},
						{
							"bias":-0.424600, "activationFunction":5, "nb_weights":1,
							"weights": [-0.474875]
						},
						{
							"bias":-0.599001, "activationFunction":5, "nb_weights":1,
							"weights": [0.214676]
						},
						{
							"bias":-0.549693, "activationFunction":5, "nb_weights":1,
							"weights": [-0.622456]
						},
						{
							"bias":-0.828581, "activationFunction":5, "nb_weights":1,
							"weights": [-0.573066]
						},
						{
							"bias":-0.799021, "activationFunction":5, "nb_weights":1,
							"weights": [-0.270480]
						},
						{
							"bias":-0.072846, "activationFunction":5, "nb_weights":1,
							"weights": [0.497960]
						},
						{
							"bias":0.000499, "activationFunction":5, "nb_weights":1,
							"weights": [-0.074821]
						},
						{
							"bias":-0.576268, "activationFunction":5, "nb_weights":1,
							"weights": [-0.001318]
						},
						{
							"bias":-0.476525, "activationFunction":5, "nb_weights":1,
							"weights": [-0.592190]
						},
						{
							"bias":-0.414282, "activationFunction":5, "nb_weights":1,
							"weights": [-0.154137]
						},
						{
							"bias":-0.523152, "activationFunction":5, "nb_weights":1,
							"weights": [-0.161145]
						},
						{
							"bias":-0.561773, "activationFunction":5, "nb_weights":1,
							"weights": [-0.383939]
						},
						{
							"bias":-0.687104, "activationFunction":5, "nb_weights":1,
							"weights": [-0.113206]
						},
						{
							"bias":-0.813415, "activationFunction":5, "nb_weights":1,
							"weights": [0.256888]
						},
						{
							"bias":-0.767560, "activationFunction":5, "nb_weights":1,
							"weights": [-0.365472]
						},
						{
							"bias":-0.239880, "activationFunction":5, "nb_weights":1,
							"weights": [0.373901]
						}
					]
				},
				{
					"nb_neurones":30,
					"neurones": [
						{
							"bias":-0.666815, "activationFunction":5, "nb_weights":30,
							"weights": [-0.322741, 0.077785, -0.259673, -0.232446, -0.375765, -0.036370, 0.007015, 0.379320, 0.245273, -0.128582, 0.199281, -0.465490, -0.195789, -0.082739, 0.136221, -0.022125, -0.559698, -0.517436, -0.455652, 0.051690, 0.115783, -0.027774, -0.544102, -0.563647, 0.215331, -0.616423, -0.301220, -0.303016, -0.124055, -0.279900]
						},
						{
							"bias":-0.576144, "activationFunction":5, "nb_weights":30,
							"weights": [0.601813, 0.560094, -0.132154, -0.044106, -0.133193, 0.050507, -0.323902, -0.383672, 0.162956, 0.304706, 0.304910, 0.299376, -0.331556, -0.260721, 0.123197, 0.162728, 0.069996, 0.399677, 0.458800, 0.307033, -0.077876, -0.018299, -0.315893, 0.041168, -0.108592, -0.288958, 0.455267, 0.174707, 0.304439, -0.444508]
						},
						{
							"bias":-1.050137, "activationFunction":5, "nb_weights":30,
							"weights": [0.150138, 0.546371, 0.477881, 0.498253, -0.227308, 0.075747, -0.452029, -0.163281, -0.286839, 0.206132, -0.363294, 0.405579, 0.250534, -0.123914, -0.088823, -0.152779, 0.356422, -0.357738, -0.301199, 0.149739, -0.020647, 0.069345, 0.262540, 0.460500, 0.341764, 0.337236, 0.296789, -0.079792, -0.008929, 0.304717]
						},
						{
							"bias":-0.602388, "activationFunction":5, "nb_weights":30,
							"weights": [-0.333575, 0.403140, 0.514807, -0.410027, -0.364241, 0.001613, -0.378615, -0.150085, 0.362171, 0.300717, -0.003868, 0.214287, -0.043528, 0.383556, 0.601256, 0.243723, 0.332240, -0.271795, 0.457241, -0.190620, 0.078508, -0.055842, -0.291989, 0.060805, -0.222158, 0.475168, -0.152348, 0.134981, -0.073257, -0.464104]
						},
						{
							"bias":-0.541491, "activationFunction":5, "nb_weights":30,
							"weights": [-0.071522, 0.425624, 0.075351, -0.096702, 0.453172, -0.429785, -0.068423, -0.275418, 0.486312, -0.382315, 0.206118, 0.103319, -0.053708, 0.094333, 0.115281, -0.383037, -0.095963, 0.220312, 0.514382, 0.119623, -0.329985, -0.150273, 0.345388, 0.193642, 0.036901, 0.195655, 0.451142, -0.418571, 0.504394, 0.410901]
						},
						{
							"bias":-0.547954, "activationFunction":5, "nb_weights":30,
							"weights": [-0.116379, 0.351872, -0.323993, 0.166767, 0.238863, -0.309606, 0.551702, 0.329489, -0.198634, 0.585051, 0.043068, 0.323376, -0.100033, -0.343980, -0.120801, -0.069582, 0.102389, 0.540767, -0.074979, -0.452729, -0.443561, 0.164697, 0.498764, 0.238992, -0.333597, 0.078600, 0.147527, -0.350107, 0.001823, -0.067356]
						},
						{
							"bias":-0.646923, "activationFunction":5, "nb_weights":30,
							"weights": [0.091387, -0.321673, 0.302643, -0.337410, 0.291132, -0.408208, -0.418337, 0.120034, -0.211587, -0.493380, -0.337537, -0.478169, -0.188167, -0.190645, -0.216613, 0.195442, 0.252959, -0.352649, 0.495939, 0.362547, -0.334525, 0.082836, 0.215148, 0.317195, 0.129208, -0.327660, -0.163780, 0.194258, 0.029167, 0.264440]
						},
						{
							"bias":-0.365979, "activationFunction":5, "nb_weights":30,
							"weights": [-0.379446, 0.442767, -0.344280, -0.216856, 0.233898, -0.252488, -0.135193, -0.146067, 0.035925, -0.128573, 0.016395, 0.057756, 0.183260, 0.325750, 0.341143, -0.121297, 0.078709, 0.488493, -0.125358, -0.058744, -0.346032, 0.457478, -0.343596, 0.471163, 0.086686, -0.171256, -0.192616, -0.219056, 0.357911, -0.428177]
						},
						{
							"bias":-0.106424, "activationFunction":5, "nb_weights":30,
							"weights": [0.478464, -0.485410, 0.289741, -0.238392, 0.248489, -0.462746, 0.126415, -0.397579, 0.073179, 0.497842, 0.118816, -0.369066, 0.181102, -0.055433, 0.472077, -0.440195, -0.476724, 0.460571, -0.065553, -0.035468, -0.385461, -0.108075, 0.120936, -0.414298, 0.478611, 0.449680, -0.106914, -0.240445, 0.307590, -0.035090]
						},
						{
							"bias":-0.291454, "activationFunction":5, "nb_weights":30,
							"weights": [0.033554, -0.152366, 0.134517, -0.599568, -0.462330, 0.361514, -0.048441, -0.146505, -0.356373, -0.074485, 0.429821, -0.208277, -0.293421, -0.153557, -0.271662, -0.146370, -0.335278, -0.427001, 0.177648, 0.472989, -0.110563, -0.359489, -0.222017, -0.079959, -0.481822, -0.222491, 0.237949, -0.143842, -0.454966, -0.088727]
						},
						{
							"bias":-0.642042, "activationFunction":5, "nb_weights":30,
							"weights": [-0.454139, 0.395069, -0.445741, -0.406476, -0.376943, 0.274831, 0.267601, -0.046533, -0.431419, -0.060479, -0.097307, -0.006735, 0.292542, 0.296486, 0.390026, -0.294631, -0.286445, -0.252642, -0.447357, -0.404844, 0.219229, -0.208159, 0.097692, -0.223198, 0.009651, -0.450091, -0.272539, 0.487016, -0.190285, 0.143030]
						},
						{
							"bias":-0.146758, "activationFunction":5, "nb_weights":30,
							"weights": [-0.144424, 0.038099, -0.087783, -0.050900, 0.161156, -0.312952, -0.283299, -0.385378, -0.244371, 0.156221, 0.017315, 0.248894, -0.051236, -0.186199, 0.138920, 0.154133, 0.027356, 0.386278, 0.206775, 0.122512, 0.105508, 0.498616, -0.279796, 0.382310, 0.008267, -0.229887, -0.390229, -0.004716, 0.079828, 0.252801]
						},
						{
							"bias":0.272159, "activationFunction":5, "nb_weights":30,
							"weights": [0.176257, -0.353331, -0.284087, -0.271672, 0.251026, 0.103521, -0.127875, -0.417718, 0.046603, -0.501853, 0.069511, -0.181668, 0.054678, 0.358681, -0.587015, -0.203872, -0.338112, 0.186531, -0.617395, -0.354541, 0.007317, -0.544838, -0.468847, -0.174246, -0.131777, -0.148779, -0.139197, -0.559438, -0.611698, -0.174438]
						},
						{
							"bias":-1.119517, "activationFunction":5, "nb_weights":30,
							"weights": [-0.308016, 0.181838, -0.286081, 0.012531, 0.171775, 0.072343, -0.339353, 0.120088, -0.079212, -0.077160, -0.256008, 0.372126, -0.421234, -0.337474, 0.481637, -0.111356, 0.181824, 0.534480, 0.008549, 0.052044, 0.023581, 0.037543, 0.479522, 0.512972, -0.321888, -0.012147, 0.136637, -0.301927, 0.126673, 0.354161]
						},
						{
							"bias":-0.092357, "activationFunction":5, "nb_weights":30,
							"weights": [0.073708, -0.022454, -0.250622, -0.488579, -0.446882, 0.389850, -0.449662, 0.195368, -0.261542, -0.153320, 0.421610, -0.455904, -0.150788, -0.454353, 0.445682, 0.212065, 0.094834, 0.329497, -0.357984, -0.308318, -0.198952, 0.137679, -0.443603, -0.257356, 0.207322, -0.040911, 0.264056, 0.346230, 0.479587, 0.118086]
						},
						{
							"bias":-0.736098, "activationFunction":5, "nb_weights":30,
							"weights": [0.053295, -0.404368, -0.342978, 0.064716, -0.351250, -0.453128, 0.115054, 0.344118, -0.214670, 0.461734, 0.265728, -0.170574, -0.189054, 0.311375, -0.224892, -0.476989, -0.093791, -0.395394, -0.334973, 0.097891, -0.094347, 0.302706, 0.154287, 0.148297, 0.010028, -0.386624, -0.087647, -0.143742, -0.407036, -0.469561]
						},
						{
							"bias":-0.780359, "activationFunction":5, "nb_weights":30,
							"weights": [0.146259, -0.373929, -0.079077, -0.289025, -0.225179, -0.032205, 0.326029, -0.381061, 0.253126, 0.287763, 0.384667, -0.417448, -0.401291, 0.196042, -0.142340, -0.378279, -0.397750, -0.037735, -0.213252, 0.200141, 0.367919, -0.410546, -0.145572, 0.016216, 0.099482, -0.032195, 0.428569, 0.455740, 0.060769, 0.459008]
						},
						{
							"bias":-0.596711, "activationFunction":5, "nb_weights":30,
							"weights": [-0.292972, -0.414922, 0.140565, -0.081997, -0.140101, -0.391640, -0.255968, -0.021162, 0.361486, -0.468205, -0.136496, 0.444037, -0.369496, -0.440454, -0.198303, -0.247775, -0.338204, 0.263963, 0.038973, 0.361937, 0.131882, 0.128426, -0.283635, -0.351902, -0.272092, 0.184170, -0.423333, -0.316352, -0.255061, -0.464325]
						},
						{
							"bias":-0.256818, "activationFunction":5, "nb_weights":30,
							"weights": [-0.216654, -0.487781, -0.490182, 0.264011, -0.158586, -0.240111, -0.536104, 0.460394, -0.600702, -0.531979, -0.179750, 0.359127, -0.329128, -0.132832, -0.369665, -0.021696, -0.132987, -0.674603, -0.567556, -0.025590, 0.109522, 0.112118, -0.039557, 0.206513, 0.288806, -0.326002, 0.235866, -0.485876, -0.108266, 0.409533]
						},
						{
							"bias":-0.855725, "activationFunction":5, "nb_weights":30,
							"weights": [-0.426697, -0.400916, 0.075567, 0.423436, 0.083492, 0.151578, 0.549216, -0.020649, 0.278711, -0.284563, 0.295666, 0.227037, -0.042708, -0.325719, 0.501452, 0.465641, 0.305615, 0.547953, -0.423195, -0.401783, 0.128893, 0.247117, 0.330603, -0.035012, 0.183434, -0.371090, -0.137289, 0.277708, 0.190501, -0.285677]
						},
						{
							"bias":-0.752416, "activationFunction":5, "nb_weights":30,
							"weights": [0.133258, -0.231355, 0.303910, 0.003366, 0.285334, -0.008684, -0.007207, -0.252731, -0.259483, 0.132280, -0.456444, 0.416627, -0.466034, -0.276184, 0.357790, 0.468125, 0.472678, 0.323247, 0.484701, -0.421875, -0.079054, 0.180165, 0.360295, 0.349908, -0.193042, 0.421106, -0.346587, -0.461815, 0.037139, -0.146104]
						},
						{
							"bias":-0.207351, "activationFunction":5, "nb_weights":30,
							"weights": [-0.266050, 0.176289, -0.405294, 0.191922, -0.040545, 0.007346, -0.307118, 0.117072, 0.371061, 0.324359, 0.167935, 0.259595, 0.298498, 0.395189, 0.124769, 0.229046, 0.452665, -0.035106, 0.251651, 0.391188, 0.295006, -0.112726, 0.373585, 0.166896, 0.209964, 0.262600, 0.331824, 0.207880, -0.204521, -0.401540]
						},
						{
							"bias":-0.695743, "activationFunction":5, "nb_weights":30,
							"weights": [-0.061707, 0.286875, 0.520703, 0.531860, -0.325200, -0.003509, -0.339125, 0.208406, -0.050620, 0.403808, -0.133150, -0.357999, 0.097662, -0.236805, 0.208841, -0.232428, -0.274435, 0.595504, 0.494111, -0.499238, 0.260921, -0.203970, 0.429929, -0.091592, 0.449117, 0.096004, -0.317980, 0.085433, 0.311394, -0.304518]
						},
						{
							"bias":-0.697267, "activationFunction":5, "nb_weights":30,
							"weights": [-0.253445, 0.543176, -0.012403, -0.363256, 0.659227, -0.622425, -0.243116, 0.193878, 0.035659, 0.585154, -0.446889, 0.088201, 0.021944, -0.169741, -0.248085, 0.187086, 0.154641, -0.198669, 0.196514, -0.107726, 0.343909, 0.367079, 0.009158, -0.240289, 0.285546, 0.480607, -0.092255, -0.237102, 0.219014, -0.066791]
						},
						{
							"bias":-0.877221, "activationFunction":5, "nb_weights":30,
							"weights": [0.053764, -0.177481, -0.462657, 0.056679, -0.195531, -0.445822, 0.128671, 0.490108, -0.058063, -0.011411, -0.453993, 0.404863, 0.377575, -0.133776, 0.489008, -0.002616, 0.298789, -0.456664, -0.483811, -0.221538, 0.336108, 0.270315, 0.082130, 0.474649, -0.110191, -0.108988, -0.294855, 0.031493, 0.404610, 0.128173]
						},
						{
							"bias":-0.662143, "activationFunction":5, "nb_weights":30,
							"weights": [-0.041625, 0.450693, -0.339877, -0.484946, -0.244839, -0.285699, 0.143725, -0.254731, 0.156237, -0.367686, -0.208724, 0.061100, -0.490111, 0.157500, 0.050108, 0.007273, -0.043712, 0.093444, 0.023462, 0.234750, -0.070448, -0.206224, -0.183120, -0.095799, 0.183585, 0.207893, 0.109346, -0.284922, 0.112503, -0.262481]
						},
						{
							"bias":-0.567110, "activationFunction":5, "nb_weights":30,
							"weights": [-0.429122, -0.311788, -0.002020, -0.414068, -0.056627, 0.212280, 0.229657, 0.188643, -0.131483, 0.361971, 0.479919, 0.429618, 0.371860, 0.137418, -0.020274, -0.120868, -0.406293, -0.426830, 0.402594, 0.328457, 0.002722, -0.303630, -0.354663, 0.406923, 0.379955, 0.353230, 0.016269, -0.404967, -0.034266, 0.253789]
						},
						{
							"bias":0.279277, "activationFunction":5, "nb_weights":30,
							"weights": [-0.190929, 0.311257, 0.383959, -0.014751, -0.292802, 0.278016, -0.348809, -0.410444, -0.631705, -0.514749, -0.458793, 0.317877, -0.547877, 0.159037, -0.239684, -0.092279, 0.053052, -0.266050, -0.296976, 0.200585, 0.426724, -0.033770, 0.050010, 0.276400, -0.237150, -0.054324, -0.273234, -0.074562, -0.624396, -0.329311]
						},
						{
							"bias":-0.758352, "activationFunction":5, "nb_weights":30,
							"weights": [0.114432, -0.384114, 0.402878, -0.263024, 0.001260, 0.046028, 0.089178, 0.075277, 0.057695, 0.303351, 0.129212, -0.001019, 0.389384, -0.179434, 0.419992, -0.145451, -0.394374, -0.085827, 0.222308, 0.219143, -0.088923, -0.213563, -0.022002, -0.185095, 0.230522, -0.409916, 0.235002, -0.230361, -0.332097, 0.408887]
						},
						{
							"bias":-0.093675, "activationFunction":5, "nb_weights":30,
							"weights": [0.282334, -0.475227, -0.355475, -0.480690, 0.026033, 0.190553, 0.108488, -0.398690, -0.251751, -0.088161, 0.230522, 0.247229, -0.198777, -0.448912, 0.167221, 0.155772, -0.343286, -0.418605, -0.121921, 0.375857, -0.007528, 0.164516, -0.146144, 0.307377, -0.104962, -0.056061, 0.042379, 0.164677, 0.111842, -0.048735]
						}
					]
				},
				{
					"nb_neurones":6,
					"neurones": [
						{
							"bias":-2.005992, "activationFunction":2, "nb_weights":30,
							"weights": [-1.008931, 0.649795, 0.480199, 0.122626, 0.414366, 1.194001, 0.000000, 0.000000, 0.000000, -2.005992, 0.000000, 0.000000, -5.833797, 0.000048, 0.000000, 0.000000, 0.000000, 0.000000, -1.082790, 0.993586, 0.659478, 0.479621, 0.940959, 0.969845, 0.000000, 0.000000, 0.000000, -0.919842, 0.000000, 0.000000]
						},
						{
							"bias":-0.919842, "activationFunction":2, "nb_weights":30,
							"weights": [-1.082790, 0.993586, 0.659478, 0.479621, 0.940959, 0.969845, 0.000000, 0.000000, 0.000000, -0.919842, 0.000000, 0.000000, -5.967622, 0.000042, 0.000000, 0.000000, 0.000000, 0.000000, -1.012872, 0.563309, 0.488985, 0.181237, 1.196239, 1.388129, 0.000000, 0.000000, 0.000000, -1.073319, 0.000000, 0.000000]
						},
						{
							"bias":-1.073319, "activationFunction":2, "nb_weights":30,
							"weights": [-1.012872, 0.563309, 0.488985, 0.181237, 1.196239, 1.388129, 0.000000, 0.000000, 0.000000, -1.073319, 0.000000, 0.000000, -5.849900, 0.000048, 0.000000, 0.000000, 0.000000, 0.000000, -0.871927, 0.366062, 1.118356, 0.503734, 1.030960, 0.680206, 0.000000, 0.000000, 0.000000, -1.430220, 0.000000, 0.000000]
						},
						{
							"bias":-1.430220, "activationFunction":2, "nb_weights":30,
							"weights": [-0.871927, 0.366062, 1.118356, 0.503734, 1.030960, 0.680206, 0.000000, 0.000000, 0.000000, -1.430220, 0.000000, 0.000000, -5.927386, 0.000044, 0.000000, 0.000000, 0.000000, 0.000000, -0.949357, 0.852790, 0.706980, 0.393626, 0.543945, 0.774402, 0.000000, 0.000000, 0.000000, -1.759901, 0.000000, 0.000000]
						},
						{
							"bias":-1.759901, "activationFunction":2, "nb_weights":30,
							"weights": [-0.949357, 0.852790, 0.706980, 0.393626, 0.543945, 0.774402, 0.000000, 0.000000, 0.000000, -1.759901, 0.000000, 0.000000, -5.916040, 0.000045, 0.000000, 0.000000, 0.000000, 0.000000, -1.182281, 0.394751, 0.621037, 0.079317, 0.629120, 1.080004, 0.000000, 0.000000, 0.000000, -1.871581, 0.000000, 0.000000]
						},
						{
							"bias":-1.871581, "activationFunction":2, "nb_weights":30,
							"weights": [-1.182281, 0.394751, 0.621037, 0.079317, 0.629120, 1.080004, 0.000000, 0.000000, 0.000000, -1.871581, 0.000000, 0.000000, -5.818718, 0.000049, 0.000000, 0.000000, 0.000000, 0.000000, 0.000000, 0.000000, 0.000000, 0.000000, 0.000000, 0.000000, 0.000000, 0.000000, 0.000000, 0.000000, 0.000000, 0.000000]
						}
					]
				}
			]
		},
		{
			"characters":"ghijkl",
			"nb_inputs":1,
			"nb_layers":4,
			"layers": [
				{
					"nb_neurones":30,
					"neurones": [
						{
							"bias":-0.891657, "activationFunction":5, "nb_weights":1,
							"weights": [0.200750]
						},
						{
							"bias":-0.500078, "activationFunction":5, "nb_weights":1,
							"weights": [-0.243039]
						},
						{
							"bias":-0.974216, "activationFunction":5, "nb_weights":1,
							"weights": [0.108322]
						},
						{
							"bias":-0.635014, "activationFunction":5, "nb_weights":1,
							"weights": [0.187306]
						},
						{
							"bias":-0.082833, "activationFunction":5, "nb_weights":1,
							"weights": [-0.329998]
						},
						{
							"bias":-0.732265, "activationFunction":5, "nb_weights":1,
							"weights": [0.376467]
						},
						{
							"bias":0.207488, "activationFunction":5, "nb_weights":1,
							"weights": [0.531408]
						},
						{
							"bias":-0.182019, "activationFunction":5, "nb_weights":1,
							"weights": [-0.555484]
						},
						{
							"bias":-0.600492, "activationFunction":5, "nb_weights":1,
							"weights": [-0.212747]
						},
						{
							"bias":-0.778162, "activationFunction":5, "nb_weights":1,
							"weights": [-0.240091]
						},
						{
							"bias":-0.114970, "activationFunction":5, "nb_weights":1,
							"weights": [-0.473884]
						},
						{
							"bias":-0.930430, "activationFunction":5, "nb_weights":1,
							"weights": [-0.549183]
						},
						{
							"bias":-0.808043, "activationFunction":5, "nb_weights":1,
							"weights": [-0.399836]
						},
						{
							"bias":-0.617815, "activationFunction":5, "nb_weights":1,
							"weights": [-0.302614]
						},
						{
							"bias":-0.283500, "activationFunction":5, "nb_weights":1,
							"weights": [-0.276689]
						},
						{
							"bias":-0.720269, "activationFunction":5, "nb_weights":1,
							"weights": [0.142235]
						},
						{
							"bias":-0.410373, "activationFunction":5, "nb_weights":1,
							"weights": [-0.452593]
						},
						{
							"bias":-0.013365, "activationFunction":5, "nb_weights":1,
							"weights": [0.191796]
						},
						{
							"bias":-0.359533, "activationFunction":5, "nb_weights":1,
							"weights": [0.574237]
						},
						{
							"bias":-0.135416, "activationFunction":5, "nb_weights":1,
							"weights": [-0.134966]
						},
						{
							"bias":-0.707631, "activationFunction":5, "nb_weights":1,
							"weights": [-0.312965]
						},
						{
							"bias":0.006270, "activationFunction":5, "nb_weights":1,
							"weights": [-0.062741]
						},
						{
							"bias":-0.819054, "activationFunction":5, "nb_weights":1,
							"weights": [-0.488563]
						},
						{
							"bias":-0.673399, "activationFunction":5, "nb_weights":1,
							"weights": [0.203550]
						},
						{
							"bias":-0.446136, "activationFunction":5, "nb_weights":1,
							"weights": [0.280652]
						},
						{
							"bias":-0.429829, "activationFunction":5, "nb_weights":1,
							"weights": [-0.645785]
						},
						{
							"bias":-0.958757, "activationFunction":5, "nb_weights":1,
							"weights": [-0.200773]
						},
						{
							"bias":-0.590420, "activationFunction":5, "nb_weights":1,
							"weights": [0.296302]
						},
						{
							"bias":-0.827867, "activationFunction":5, "nb_weights":1,
							"weights": [-0.246468]
						},
						{
							"bias":-0.331805, "activationFunction":5, "nb_weights":1,
							"weights": [-0.578271]
						}
					]
				},
				{
					"nb_neurones":30,
					"neurones": [
						{
							"bias":-0.670315, "activationFunction":5, "nb_weights":30,
							"weights": [-0.187328, 0.411272, -0.208811, 0.079254, 0.213284, 0.468431, 0.021331, 0.176637, 0.012087, -0.410731, 0.153648, 0.322595, 0.002502, 0.458073, 0.153042, 0.128592, -0.226888, -0.119563, 0.468811, 0.413453, 0.390460, -0.476879, 0.207895, -0.259109, -0.364273, 0.155459, 0.342403, 0.049174, 0.474980, 0.451320]
						},
						{
							"bias":-0.640897, "activationFunction":5, "nb_weights":30,
							"weights": [-0.245594, 0.339571, 0.214157, 0.289434, -0.006798, 0.124416, -0.240640, -0.345131, -0.364669, -0.067441, 0.261962, 0.414134, 0.390035, 0.188484, -0.014196, -0.051942, 0.412090, 0.319320, -0.144643, 0.266966, 0.256357, -0.092251, -0.012285, 0.431915, 0.027438, -0.419811, 0.269827, -0.415851, 0.501997, 0.161503]
						},
						{
							"bias":-0.208567, "activationFunction":5, "nb_weights":30,
							"weights": [-0.459245, -0.278162, -0.498555, 0.344246, 0.241764, 0.170211, -0.213670, 0.284652, 0.129638, -0.059087, 0.010920, -0.082969, -0.296878, -0.395093, -0.520139, 0.171730, -0.533977, 0.424625, -0.319590, 0.300297, -0.076212, 0.004501, -0.436245, -0.092185, -0.433689, -0.412473, -0.506931, -0.397547, -0.484375, 0.116173]
						},
						{
							"bias":-0.658131, "activationFunction":5, "nb_weights":30,
							"weights": [-0.146554, -0.285840, 0.308212, -0.298002, 0.475563, -0.040290, -0.195103, 0.418281, -0.186887, 0.524645, 0.011165, 0.430080, -0.072580, 0.259301, 0.362555, -0.371252, 0.324061, 0.159402, -0.338801, 0.077708, -0.127850, 0.248365, 0.419911, 0.264271, 0.291221, -0.372991, 0.490207, 0.439530, -0.222195, 0.196301]
						},
						{
							"bias":-0.715372, "activationFunction":5, "nb_weights":30,
							"weights": [-0.009279, 0.247797, -0.223213, 0.137185, 0.133960, 0.163792, 0.412922, -0.023760, 0.391693, 0.470900, 0.397635, 0.193947, -0.234661, 0.070679, -0.022293, -0.211390, -0.201021, -0.382056, -0.088885, 0.317859, -0.046680, -0.331027, 0.158734, -0.363123, 0.448212, 0.161684, 0.537747, 0.382334, 0.322168, 0.128747]
						},
						{
							"bias":-0.319164, "activationFunction":5, "nb_weights":30,
							"weights": [-0.206221, -0.098742, 0.215124, 0.351538, 0.438188, -0.221567, 0.184135, -0.088173, -0.290167, 0.304560, -0.258647, 0.358584, 0.536448, 0.274093, -0.328971, -0.289994, 0.500100, -0.302675, 0.004512, 0.209351, 0.274583, 0.233357, -0.063638, 0.297082, 0.150466, 0.507111, 0.365544, 0.047242, 0.260369, -0.101944]
						},
						{
							"bias":-0.642596, "activationFunction":5, "nb_weights":30,
							"weights": [0.314833, 0.030056, -0.021092, 0.117401, -0.105984, 0.208930, -0.107529, 0.180222, 0.270536, -0.431616, 0.316940, -0.053212, 0.436824, -0.039006, 0.057575, -0.451093, -0.154620, 0.300801, 0.095414, -0.470695, -0.066261, -0.198791, -0.203326, -0.327315, 0.454013, -0.342120, 0.379046, -0.030559, 0.275429, -0.349522]
						},
						{
							"bias":-0.668269, "activationFunction":5, "nb_weights":30,
							"weights": [0.090262, 0.180533, 0.336312, -0.292337, -0.425451, 0.045242, 0.100134, 0.254771, -0.184222, 0.168518, 0.071710, 0.262566, 0.105342, -0.467296, -0.179858, 0.154250, -0.121916, -0.379057, -0.250337, -0.092611, 0.054682, 0.050873, 0.204063, 0.227367, 0.004886, 0.361943, 0.106414, 0.474327, 0.137372, 0.256892]
						},
						{
							"bias":-0.424980, "activationFunction":5, "nb_weights":30,
							"weights": [-0.272366, -0.062575, -0.331957, -0.064704, 0.011974, 0.213286, -0.464570, -0.233256, -0.470936, 0.203949, 0.338455, 0.291630, -0.190709, 0.371159, -0.388229, 0.463541, -0.250757, -0.267286, -0.286796, 0.156632, 0.287397, 0.264077, -0.139305, 0.014764, -0.231038, -0.277362, -0.378822, -0.256711, 0.360010, 0.378070]
						},
						{
							"bias":-0.187916, "activationFunction":5, "nb_weights":30,
							"weights": [-0.494141, -0.341834, 0.120082, -0.019892, 0.233418, -0.093724, 0.097776, -0.529924, -0.167951, -0.331908, 0.332485, -0.405738, -0.097558, 0.182889, -0.148532, -0.055672, -0.550922, 0.171150, 0.271025, 0.193178, -0.234747, -0.027339, -0.598367, 0.361956, 0.256655, -0.348370, -0.617105, -0.495588, -0.489932, 0.309419]
						},
						{
							"bias":-0.642344, "activationFunction":5, "nb_weights":30,
							"weights": [-0.259310, -0.261567, -0.157231, 0.263631, -0.434099, 0.299118, -0.177998, -0.339887, -0.215469, 0.084321, -0.407219, 0.061574, -0.344068, 0.396607, 0.450388, 0.191083, 0.449677, 0.071917, -0.060561, 0.159379, 0.480842, 0.451872, 0.229776, 0.404533, 0.233267, -0.477188, 0.449401, 0.257951, -0.324142, 0.372339]
						},
						{
							"bias":-0.826297, "activationFunction":5, "nb_weights":30,
							"weights": [-0.083452, -0.389229, 0.200425, -0.319821, -0.323328, -0.000458, 0.002181, -0.163215, 0.284073, -0.413498, -0.070434, -0.154353, -0.257566, -0.173827, -0.203965, 0.433517, -0.224149, 0.367952, -0.127043, 0.435230, 0.348794, -0.175171, 0.165006, 0.253327, -0.441904, 0.187818, 0.202727, 0.316047, 0.363676, 0.075066]
						},
						{
							"bias":0.337675, "activationFunction":5, "nb_weights":30,
							"weights": [-0.360668, -0.087971, 0.164316, -0.109206, 0.200515, -0.211002, 0.526926, -0.517015, -0.608410, -0.611476, -0.041718, -0.312012, -0.500720, 0.249929, 0.242071, -0.431685, -0.448444, 0.256928, 0.136564, -0.360550, -0.231801, 0.357176, 0.040670, -0.335445, 0.441491, -0.223967, 0.193194, 0.261633, -0.363764, -0.144301]
						},
						{
							"bias":-0.287552, "activationFunction":5, "nb_weights":30,
							"weights": [0.236470, -0.105852, 0.459583, -0.346406, -0.309515, -0.236888, -0.432207, -0.082035, 0.029471, -0.287682, 0.517115, 0.557003, 0.091335, 0.487834, 0.195233, 0.238029, -0.295256, -0.209786, -0.266616, -0.214969, 0.501716, -0.291392, -0.231253, -0.311189, -0.324375, 0.259180, -0.239428, 0.466605, -0.354909, 0.250939]
						},
						{
							"bias":-0.460803, "activationFunction":5, "nb_weights":30,
							"weights": [0.171343, 0.384715, 0.265635, 0.294586, 0.480353, 0.484101, 0.380413, -0.224715, -0.139689, -0.484674, -0.300921, -0.260089, -0.058240, -0.422093, 0.418936, -0.406770, -0.312380, -0.234662, -0.157305, -0.036552, -0.372089, 0.014982, 0.070396, -0.240018, 0.168188, -0.303716, -0.135723, 0.118358, -0.295213, -0.484137]
						},
						{
							"bias":-0.215134, "activationFunction":5, "nb_weights":30,
							"weights": [0.376130, 0.400578, -0.195168, 0.170716, 0.380930, -0.211067, 0.051129, -0.343784, 0.149244, 0.066456, -0.144706, 0.389155, -0.491785, -0.066799, 0.308091, -0.398555, 0.120821, -0.426570, -0.055860, -0.415731, -0.298659, 0.459122, 0.154665, -0.038677, 0.127310, 0.350949, 0.325599, -0.254331, -0.444264, 0.341463]
						},
						{
							"bias":-0.109066, "activationFunction":5, "nb_weights":30,
							"weights": [0.431865, 0.242041, -0.410302, 0.102581, 0.122971, -0.121369, -0.346289, 0.279187, -0.472125, 0.220167, -0.365519, 0.417031, 0.228382, 0.067682, 0.225122, 0.329827, -0.311497, 0.298552, -0.226032, -0.227228, 0.499893, -0.266910, 0.427437, -0.038785, 0.360400, 0.278386, -0.213185, -0.393931, 0.334121, -0.371723]
						},
						{
							"bias":-0.834884, "activationFunction":5, "nb_weights":30,
							"weights": [0.265987, 0.370318, 0.480632, -0.131432, -0.006711, -0.140736, 0.022279, -0.227524, -0.112861, -0.257555, -0.093043, -0.195830, 0.470827, 0.474639, -0.470708, 0.300655, -0.336857, 0.327844, -0.425378, -0.064085, 0.327737, -0.192288, -0.136648, -0.211048, -0.331887, -0.358263, 0.075767, -0.225819, 0.475858, 0.204044]
						},
						{
							"bias":-0.440749, "activationFunction":5, "nb_weights":30,
							"weights": [0.281409, 0.125204, -0.305354, -0.366200, -0.404754, 0.025409, 0.092215, -0.112883, 0.445967, 0.428053, 0.286689, -0.235137, 0.409111, 0.273188, -0.245108, 0.184332, 0.431891, -0.461562, 0.204551, -0.166398, 0.435906, -0.461756, 0.248483, -0.304387, -0.300256, 0.382677, 0.306505, -0.014021, 0.357504, 0.000683]
						},
						{
							"bias":-0.518915, "activationFunction":5, "nb_weights":30,
							"weights": [0.146198, -0.319587, 0.413288, 0.204697, -0.326546, -0.164647, -0.325969, 0.072462, -0.156530, -0.187694, -0.201523, 0.077787, -0.305859, 0.548646, 0.176525, 0.257413, 0.417635, 0.102187, -0.178084, -0.359896, 0.193112, -0.061942, 0.478710, 0.263632, 0.090173, 0.280113, 0.128662, -0.395850, 0.077411, 0.546936]
						},
						{
							"bias":0.054483, "activationFunction":5, "nb_weights":30,
							"weights": [0.384183, 0.314252, -0.108066, 0.074873, -0.540678, 0.239203, 0.476609, -0.149075, 0.341072, -0.539141, 0.046483, -0.311125, -0.561020, -0.073735, 0.384257, 0.148586, -0.276918, 0.124571, -0.364423, -0.098575, -0.487674, -0.015007, -0.420930, 0.283491, -0.391550, 0.213539, -0.343470, -0.344800, -0.365826, -0.416663]
						},
						{
							"bias":-0.913099, "activationFunction":5, "nb_weights":30,
							"weights": [-0.169891, -0.177595, 0.045751, 0.379228, -0.255934, -0.279880, 0.125855, 0.258582, -0.167994, 0.455953, -0.145044, 0.208208, 0.602233, 0.415918, -0.045369, 0.218833, -0.288204, 0.401400, 0.139961, 0.010583, -0.199175, -0.255112, 0.428103, 0.505540, -0.193543, 0.223515, -0.060819, 0.023657, 0.469576, 0.068701]
						},
						{
							"bias":-0.273202, "activationFunction":5, "nb_weights":30,
							"weights": [0.559898, 0.084177, 0.351074, 0.358722, 0.175841, 0.459399, -0.078420, -0.199744, -0.372180, -0.052768, 0.001238, 0.111326, -0.200043, -0.231259, 0.458186, 0.351649, -0.181846, 0.336401, -0.066624, 0.234491, 0.550385, 0.188359, 0.006751, 0.433289, 0.479506, 0.519333, -0.293492, 0.008767, 0.284284, 0.104349]
						},
						{
							"bias":-0.364569, "activationFunction":5, "nb_weights":30,
							"weights": [0.229133, -0.394793, 0.200578, 0.004758, 0.202002, 0.072758, -0.567770, 0.456807, 0.180963, -0.076029, -0.127494, -0.301548, 0.135279, 0.059821, 0.504380, -0.131664, 0.274538, 0.278885, 0.248887, -0.084296, 0.361200, -0.022808, 0.401671, 0.189944, -0.059350, 0.302169, 0.360818, 0.439603, -0.015827, -0.156207]
						},
						{
							"bias":-0.946780, "activationFunction":5, "nb_weights":30,
							"weights": [-0.450562, -0.234335, -0.107726, 0.018990, 0.417697, 0.433532, 0.022520, 0.289338, 0.016023, 0.352758, -0.410404, 0.091376, -0.125456, 0.057835, 0.045808, 0.179227, -0.250451, -0.145215, -0.039697, 0.142911, -0.381115, 0.418014, -0.070543, 0.269806, -0.138998, -0.369361, 0.022283, -0.220775, 0.016102, 0.275970]
						},
						{
							"bias":-0.414657, "activationFunction":5, "nb_weights":30,
							"weights": [0.065540, -0.458365, -0.054506, -0.415470, 0.459332, -0.120973, 0.107050, 0.248671, 0.395050, -0.040192, 0.338267, -0.013573, 0.334352, -0.103898, -0.467765, 0.013579, 0.145651, -0.112981, 0.473882, -0.211438, 0.005904, 0.391896, 0.218019, -0.224290, -0.247102, 0.348658, 0.297993, 0.032123, -0.135240, 0.073964]
						},
						{
							"bias":-0.334238, "activationFunction":5, "nb_weights":30,
							"weights": [0.430300, 0.115599, -0.469163, -0.485169, 0.074931, -0.090136, 0.121881, -0.176398, -0.195086, -0.418310, -0.338131, 0.291341, 0.416042, 0.057971, 0.323575, -0.070379, -0.296378, -0.289406, -0.096497, -0.007816, 0.216498, -0.204602, -0.289797, 0.492208, 0.048297, -0.441139, 0.290201, -0.419581, -0.076379, -0.135835]
						},
						{
							"bias":-0.184518, "activationFunction":5, "nb_weights":30,
							"weights": [-0.318377, 0.188566, -0.033368, -0.201196, -0.092288, -0.477794, 0.631378, 0.133103, -0.383862, -0.651033, -0.658869, -0.649479, 0.163220, -0.138763, -0.554107, -0.267916, 0.095884, -0.161561, 0.394601, -0.240591, 0.183921, -0.435306, -0.317819, 0.345906, 0.181153, -0.209583, -0.068108, 0.192244, 0.219336, -0.626535]
						},
						{
							"bias":-0.060867, "activationFunction":5, "nb_weights":30,
							"weights": [-0.159453, -0.420275, -0.392035, 0.209300, 0.134419, -0.285572, 0.199934, 0.012716, 0.125806, 0.272257, 0.052881, 0.328525, 0.260622, -0.348983, 0.354819, -0.321392, 0.452775, -0.408292, -0.499904, -0.253284, -0.454905, -0.383018, 0.250860, 0.490690, 0.282165, -0.186136, 0.226486, 0.027768, -0.199510, 0.326447]
						},
						{
							"bias":-0.872098, "activationFunction":5, "nb_weights":30,
							"weights": [0.141038, 0.406171, -0.452903, -0.149663, 0.040591, -0.238474, -0.449729, -0.446693, 0.387332, 0.322528, 0.106188, 0.215858, 0.083150, 0.257206, 0.070677, 0.261758, 0.209980, 0.162385, 0.261853, 0.456696, 0.207479, 0.378836, 0.207555, 0.198169, 0.161001, -0.478581, -0.075345, -0.311231, -0.178090, -0.248898]
						}
					]
				},
				{
					"nb_neurones":6,
					"neurones": [
						{
							"bias":-1.403936, "activationFunction":2, "nb_weights":30,
							"weights": [1.215065, 0.361906, -0.983602, 0.504644, 0.890970, 0.573619, 0.000000, 0.000000, 0.000000, -1.403936, 0.000000, 0.000000, -5.887565, 0.000046, 0.000000, 0.000000, 0.000000, 0.000000, 1.017350, 0.540135, -0.980691, 0.558110, 0.245543, 0.913701, 0.000000, 0.000000, 0.000000, -1.667450, 0.000000, 0.000000]
						},
						{
							"bias":-1.667450, "activationFunction":2, "nb_weights":30,
							"weights": [1.017350, 0.540135, -0.980691, 0.558110, 0.245543, 0.913701, 0.000000, 0.000000, 0.000000, -1.667450, 0.000000, 0.000000, -5.882046, 0.000046, 0.000000, 0.000000, 0.000000, 0.000000, 1.077522, 0.928241, -0.504120, 0.651541, 0.674807, 1.077497, 0.000000, 0.000000, 0.000000, -1.008217, 0.000000, 0.000000]
						},
						{
							"bias":-1.008217, "activationFunction":2, "nb_weights":30,
							"weights": [1.077522, 0.928241, -0.504120, 0.651541, 0.674807, 1.077497, 0.000000, 0.000000, 0.000000, -1.008217, 0.000000, 0.000000, -5.870581, 0.000047, 0.000000, 0.000000, 0.000000, 0.000000, 0.519846, 0.780551, -0.558050, 1.108088, 0.788965, 0.314058, 0.000000, 0.000000, 0.000000, -1.844596, 0.000000, 0.000000]
						},
						{
							"bias":-1.844596, "activationFunction":2, "nb_weights":30,
							"weights": [0.519846, 0.780551, -0.558050, 1.108088, 0.788965, 0.314058, 0.000000, 0.000000, 0.000000, -1.844596, 0.000000, 0.000000, -5.871532, 0.000047, 0.000000, 0.000000, 0.000000, 0.000000, 0.999352, 0.482633, -0.942091, 0.912782, 0.629634, 0.398369, 0.000000, 0.000000, 0.000000, -1.571916, 0.000000, 0.000000]
						},
						{
							"bias":-1.571916, "activationFunction":2, "nb_weights":30,
							"weights": [0.999352, 0.482633, -0.942091, 0.912782, 0.629634, 0.398369, 0.000000, 0.000000, 0.000000, -1.571916, 0.000000, 0.000000, -5.894187, 0.000046, 0.000000, 0.000000, 0.000000, 0.000000, 0.486952, 0.986554, -0.701457, 1.168859, 0.300580, 0.808365, 0.000000, 0.000000, 0.000000, -1.476040, 0.000000, 0.000000]
						},
						{
							"bias":-1.476040, "activationFunction":2, "nb_weights":30,
							"weights": [0.486952, 0.986554, -0.701457, 1.168859, 0.300580, 0.808365, 0.000000, 0.000000, 0.000000, -1.476040, 0.000000, 0.000000, -5.884242, 0.000046, 0.000000, 0.000000, 0.000000, 0.000000, 0.000000, 0.000000, 0.000000, 0.000000, 0.000000, 0.000000, 0.000000, 0.000000, 0.000000, 0.000000, 0.000000, 0.000000]
						}
					]
				}
			]
		},
		{
			"characters":"mnopqr",
			"nb_inputs":1,
			"nb_layers":4,
			"layers": [
				{
					"nb_neurones":30,
					"neurones": [
						{
							"bias":-0.749372, "activationFunction":5, "nb_weights":1,
							"weights": [-0.552153]
						},
						{
							"bias":-0.334375, "activationFunction":5, "nb_weights":1,
							"weights": [-0.140709]
						},
						{
							"bias":-1.029551, "activationFunction":5, "nb_weights":1,
							"weights": [0.170251]
						},
						{
							"bias":-0.811341, "activationFunction":5, "nb_weights":1,
							"weights": [-0.554791]
						},
						{
							"bias":-0.170382, "activationFunction":5, "nb_weights":1,
							"weights": [-0.620057]
						},
						{
							"bias":-0.810221, "activationFunction":5, "nb_weights":1,
							"weights": [-0.417789]
						},
						{
							"bias":-0.759977, "activationFunction":5, "nb_weights":1,
							"weights": [0.148937]
						},
						{
							"bias":-0.401510, "activationFunction":5, "nb_weights":1,
							"weights": [-0.633680]
						},
						{
							"bias":-0.140242, "activationFunction":5, "nb_weights":1,
							"weights": [-0.232705]
						},
						{
							"bias":-0.694781, "activationFunction":5, "nb_weights":1,
							"weights": [-0.497453]
						},
						{
							"bias":-0.602545, "activationFunction":5, "nb_weights":1,
							"weights": [-0.141275]
						},
						{
							"bias":-0.560262, "activationFunction":5, "nb_weights":1,
							"weights": [-0.192109]
						},
						{
							"bias":-0.213792, "activationFunction":5, "nb_weights":1,
							"weights": [0.619083]
						},
						{
							"bias":-0.472623, "activationFunction":5, "nb_weights":1,
							"weights": [-0.532777]
						},
						{
							"bias":0.095945, "activationFunction":5, "nb_weights":1,
							"weights": [0.292916]
						},
						{
							"bias":0.015321, "activationFunction":5, "nb_weights":1,
							"weights": [-0.082115]
						},
						{
							"bias":-0.438153, "activationFunction":5, "nb_weights":1,
							"weights": [-0.163057]
						},
						{
							"bias":-0.824757, "activationFunction":5, "nb_weights":1,
							"weights": [-0.164800]
						},
						{
							"bias":-0.645415, "activationFunction":5, "nb_weights":1,
							"weights": [0.202655]
						},
						{
							"bias":-0.109732, "activationFunction":5, "nb_weights":1,
							"weights": [0.022266]
						},
						{
							"bias":-0.247208, "activationFunction":5, "nb_weights":1,
							"weights": [-0.272581]
						},
						{
							"bias":-0.992817, "activationFunction":5, "nb_weights":1,
							"weights": [-0.233044]
						},
						{
							"bias":-0.658422, "activationFunction":5, "nb_weights":1,
							"weights": [-0.355509]
						},
						{
							"bias":-0.495468, "activationFunction":5, "nb_weights":1,
							"weights": [0.396943]
						},
						{
							"bias":-1.103993, "activationFunction":5, "nb_weights":1,
							"weights": [-0.330437]
						},
						{
							"bias":-0.031111, "activationFunction":5, "nb_weights":1,
							"weights": [0.441188]
						},
						{
							"bias":-0.281384, "activationFunction":5, "nb_weights":1,
							"weights": [0.192407]
						},
						{
							"bias":-0.168095, "activationFunction":5, "nb_weights":1,
							"weights": [0.563319]
						},
						{
							"bias":0.173052, "activationFunction":5, "nb_weights":1,
							"weights": [-0.110154]
						},
						{
							"bias":-0.136140, "activationFunction":5, "nb_weights":1,
							"weights": [-0.114807]
						}
					]
				},
				{
					"nb_neurones":30,
					"neurones": [
						{
							"bias":-0.877791, "activationFunction":5, "nb_weights":30,
							"weights": [0.478245, -0.019858, 0.052633, -0.187315, 0.555757, 0.561209, 0.024512, 0.379735, -0.017420, -0.367475, 0.217753, 0.435743, 0.439133, -0.399995, 0.423693, -0.244066, 0.002213, 0.470150, 0.234147, 0.196392, 0.433535, 0.226468, 0.252831, 0.034857, -0.094178, -0.158602, -0.477272, -0.057906, -0.126734, -0.143311]
						},
						{
							"bias":-0.653011, "activationFunction":5, "nb_weights":30,
							"weights": [-0.199655, 0.282593, 0.281376, 0.001874, 0.269778, 0.290463, 0.417376, 0.062700, -0.321913, 0.508199, -0.313157, 0.540801, 0.368041, -0.296456, 0.426779, -0.340297, 0.120837, 0.430032, 0.330877, -0.248856, 0.279294, 0.018883, 0.502432, -0.240487, 0.315363, -0.231494, -0.223702, -0.333343, 0.177743, 0.133429]
						},
						{
							"bias":-0.547531, "activationFunction":5, "nb_weights":30,
							"weights": [0.593718, -0.057583, -0.166152, 0.019404, -0.309521, 0.621192, -0.216158, 0.205024, -0.342189, -0.180396, 0.280862, -0.364941, -0.567240, 0.434138, -0.609386, -0.266107, -0.023679, 0.554260, 0.530479, 0.079210, 0.169173, 0.092198, 0.208948, 0.389418, -0.163122, 0.252504, -0.331200, -0.240242, 0.022752, 0.312452]
						},
						{
							"bias":-0.722797, "activationFunction":5, "nb_weights":30,
							"weights": [-0.064238, -0.375317, 0.439065, 0.210423, -0.337011, 0.448227, 0.262289, 0.180133, 0.446115, 0.469978, -0.195903, 0.485273, 0.296517, 0.568007, 0.317470, 0.546520, -0.126252, 0.347533, 0.407227, 0.336557, -0.090443, -0.110153, -0.013036, -0.345195, -0.015859, -0.358811, -0.214897, 0.096411, 0.219140, -0.393826]
						},
						{
							"bias":-0.450784, "activationFunction":5, "nb_weights":30,
							"weights": [0.644208, -0.334617, -0.069890, 0.251680, -0.230917, -0.189330, -0.049323, 0.368336, -0.384769, -0.123109, 0.550908, 0.519829, -0.446513, 0.539904, 0.263133, -0.359054, -0.191372, 0.204676, -0.423176, -0.407971, 0.474066, -0.065172, 0.103948, -0.373649, 0.320201, 0.136750, -0.057146, -0.205046, -0.126503, 0.011512]
						},
						{
							"bias":-0.017568, "activationFunction":5, "nb_weights":30,
							"weights": [-0.321279, -0.044304, -0.520930, 0.269517, 0.086274, -0.437870, -0.234973, -0.189870, -0.333316, -0.110377, -0.208494, -0.384153, 0.233002, -0.298274, -0.369654, 0.163885, -0.070462, -0.039056, 0.213798, 0.164535, -0.046819, -0.614427, -0.529242, 0.122232, 0.039006, 0.368314, -0.456819, -0.407795, -0.392370, -0.062263]
						},
						{
							"bias":-0.861886, "activationFunction":5, "nb_weights":30,
							"weights": [0.013303, -0.431993, 0.329209, -0.033636, 0.285682, -0.443820, 0.290718, -0.253303, -0.173908, -0.149002, 0.161064, 0.032086, -0.484794, 0.499822, 0.068695, 0.269656, 0.052787, -0.316370, 0.032931, -0.303836, 0.212607, 0.089300, -0.181790, -0.157573, -0.187319, -0.376141, -0.108109, -0.136366, -0.216060, 0.404919]
						},
						{
							"bias":-0.873154, "activationFunction":5, "nb_weights":30,
							"weights": [0.297243, 0.472926, 0.467322, -0.236393, 0.258608, -0.476498, -0.445675, -0.494695, -0.150406, -0.094676, 0.166369, 0.381680, -0.079470, 0.166191, -0.049625, -0.309814, -0.281022, 0.134005, 0.223117, -0.084858, -0.153389, -0.187583, 0.233352, 0.189038, 0.125098, 0.357211, -0.419071, 0.488733, -0.358849, 0.485848]
						},
						{
							"bias":-0.951423, "activationFunction":5, "nb_weights":30,
							"weights": [0.438394, 0.458774, -0.405832, -0.297999, 0.217382, -0.382330, -0.243674, 0.222687, -0.032736, 0.161650, -0.110944, -0.151056, -0.417820, -0.444753, 0.299319, -0.227634, -0.225775, -0.066676, 0.495483, 0.189368, 0.279935, -0.192100, -0.077280, -0.031027, 0.432998, -0.220069, 0.049902, 0.421731, -0.078917, 0.035749]
						},
						{
							"bias":-0.636622, "activationFunction":5, "nb_weights":30,
							"weights": [-0.394926, -0.130595, -0.466641, -0.217533, -0.463695, -0.455805, 0.191895, 0.223761, 0.087617, -0.272323, -0.290079, -0.471002, 0.096764, -0.295387, 0.466334, 0.165278, -0.030789, -0.408375, 0.247131, -0.153151, -0.476848, -0.616175, 0.043385, 0.023504, -0.707789, -0.367779, -0.428280, 0.480583, -0.127704, 0.026375]
						},
						{
							"bias":-0.849883, "activationFunction":5, "nb_weights":30,
							"weights": [0.325701, -0.361651, -0.316565, -0.112822, -0.149745, -0.056149, -0.295018, -0.215152, -0.328469, 0.184436, 0.108497, -0.251845, -0.253931, 0.487394, -0.375902, -0.419931, 0.140516, -0.066635, 0.409551, 0.483006, 0.022566, -0.453066, 0.248216, -0.419260, -0.382685, 0.293357, -0.311184, -0.390573, -0.240419, 0.332641]
						},
						{
							"bias":-0.978639, "activationFunction":5, "nb_weights":30,
							"weights": [-0.414718, 0.470990, -0.166448, -0.027540, -0.178756, 0.277404, 0.177442, 0.106092, 0.448935, -0.138122, -0.285411, -0.302910, 0.107947, -0.298017, -0.178812, 0.188016, 0.342499, 0.254553, 0.097567, 0.325505, -0.222881, 0.144502, 0.073721, -0.142140, 0.261817, -0.132922, 0.046676, 0.371244, 0.126659, -0.120683]
						},
						{
							"bias":-0.181605, "activationFunction":5, "nb_weights":30,
							"weights": [-0.111298, -0.315679, -0.290349, -0.665451, -0.058110, -0.653835, 0.215709, -0.493403, -0.600827, -0.595011, -0.171394, -0.305996, 0.403812, -0.037564, 0.235572, -0.177630, -0.194276, -0.424720, -0.487837, -0.123715, 0.030056, -0.058255, 0.156326, 0.452057, -0.326159, -0.089434, -0.002930, -0.090448, 0.320791, 0.272117]
						},
						{
							"bias":-0.608635, "activationFunction":5, "nb_weights":30,
							"weights": [0.208519, -0.200952, 0.296735, 0.399710, 0.482936, 0.459662, 0.218939, -0.230027, 0.522870, 0.477977, 0.237939, -0.225888, 0.234224, -0.053906, 0.338597, -0.189676, 0.486911, -0.225817, -0.100086, -0.202407, 0.364630, -0.291259, -0.205688, 0.344561, 0.238849, 0.016027, -0.118613, -0.435050, -0.004065, -0.179995]
						},
						{
							"bias":-0.733762, "activationFunction":5, "nb_weights":30,
							"weights": [-0.389805, 0.053024, -0.252427, 0.436213, -0.010064, -0.349023, 0.124074, 0.204492, -0.364367, 0.035654, -0.088720, -0.101370, -0.221099, 0.312285, -0.238843, 0.041830, 0.250004, -0.022234, 0.422010, -0.450057, -0.174422, -0.436059, -0.214177, -0.337550, 0.229440, 0.324722, 0.035060, 0.289752, -0.206702, 0.322724]
						},
						{
							"bias":-0.908453, "activationFunction":5, "nb_weights":30,
							"weights": [-0.096507, -0.124252, 0.013811, -0.160293, 0.365684, 0.164788, 0.463781, 0.070176, 0.300421, -0.000565, 0.481457, -0.300949, 0.278336, 0.293741, -0.039792, -0.179834, 0.043745, 0.437974, -0.257824, 0.093688, -0.236448, -0.193884, 0.379511, -0.073998, -0.464444, 0.204232, 0.461062, 0.325309, 0.497531, 0.283786]
						},
						{
							"bias":-0.196849, "activationFunction":5, "nb_weights":30,
							"weights": [-0.098976, -0.340466, 0.105357, 0.240731, -0.474782, -0.229855, 0.204511, 0.095394, -0.429434, -0.296054, 0.076851, -0.230384, 0.482282, -0.129407, 0.229824, -0.197552, 0.414338, 0.167798, 0.044623, 0.008026, 0.431350, 0.350740, -0.112463, -0.142648, 0.386296, -0.408231, -0.181586, 0.211605, -0.410700, -0.397800]
						},
						{
							"bias":-0.779344, "activationFunction":5, "nb_weights":30,
							"weights": [-0.009676, -0.238266, -0.091491, -0.268946, -0.213049, 0.178654, 0.435566, 0.382346, 0.249219, -0.360488, -0.040803, -0.481164, -0.378207, 0.329790, 0.248660, -0.075759, 0.244128, -0.083542, 0.468865, -0.247846, -0.152192, 0.319604, 0.139691, 0.205160, 0.205900, 0.231460, -0.476426, -0.082495, 0.320760, -0.374226]
						},
						{
							"bias":-0.851182, "activationFunction":5, "nb_weights":30,
							"weights": [-0.056374, -0.033288, 0.206297, 0.173712, 0.281626, -0.055262, 0.021625, 0.177124, -0.373475, 0.243926, -0.370034, -0.293672, 0.159447, 0.467495, 0.242968, -0.309546, 0.175652, -0.139884, -0.325341, 0.325511, 0.173128, 0.579365, 0.099571, -0.204698, 0.291603, -0.347441, -0.186470, -0.500975, -0.453342, -0.011218]
						},
						{
							"bias":-0.187536, "activationFunction":5, "nb_weights":30,
							"weights": [-0.002211, 0.412037, 0.512112, 0.548294, 0.117094, -0.123086, -0.064725, -0.307640, -0.125422, 0.631076, -0.315817, -0.051663, 0.167990, 0.541290, -0.386480, 0.455825, 0.117439, 0.064521, -0.421654, -0.151546, -0.420695, 0.617247, 0.468010, -0.164673, 0.287774, -0.494548, 0.151360, 0.174208, -0.379774, -0.367752]
						},
						{
							"bias":-0.574523, "activationFunction":5, "nb_weights":30,
							"weights": [0.056510, 0.474638, 0.482152, -0.049091, 0.004492, -0.227920, 0.233290, 0.081788, 0.015555, 0.287965, 0.132466, 0.367682, -0.158242, 0.072844, -0.561653, -0.166587, 0.577165, 0.042212, -0.173321, -0.165050, 0.002796, -0.121353, -0.207634, 0.275214, 0.514586, -0.312527, -0.094091, 0.056526, -0.147067, 0.024569]
						},
						{
							"bias":-0.524114, "activationFunction":5, "nb_weights":30,
							"weights": [0.394795, -0.032925, 0.055641, -0.283200, 0.403029, 0.298201, 0.281644, -0.109685, -0.309594, 0.054145, 0.427663, 0.512362, 0.222144, -0.091983, 0.316734, -0.360950, -0.119845, -0.028763, -0.113893, 0.091633, 0.365733, 0.249427, 0.430338, 0.054292, 0.139799, -0.520250, 0.448154, -0.483577, -0.100241, -0.010323]
						},
						{
							"bias":-0.794248, "activationFunction":5, "nb_weights":30,
							"weights": [-0.282080, 0.364425, -0.296082, -0.210327, 0.175623, 0.407686, 0.463291, 0.450949, 0.462535, -0.061601, 0.236609, 0.357348, -0.417709, 0.539810, 0.159265, -0.255563, -0.193310, -0.343797, 0.078453, 0.339083, 0.391735, -0.239745, 0.249783, -0.087549, 0.256564, 0.142617, -0.135041, 0.179369, -0.431868, 0.327295]
						},
						{
							"bias":-0.564125, "activationFunction":5, "nb_weights":30,
							"weights": [-0.543862, -0.018519, -0.092332, -0.388800, -0.463403, -0.377062, -0.354370, -0.634300, -0.414743, -0.136407, 0.063216, 0.406852, 0.224348, -0.004477, 0.300542, 0.253028, 0.232052, 0.105115, -0.168421, 0.221597, 0.038555, -0.144433, -0.303098, -0.502181, -0.526890, -0.397583, -0.146846, 0.399619, -0.477346, -0.431231]
						},
						{
							"bias":-0.030398, "activationFunction":5, "nb_weights":30,
							"weights": [-0.284640, 0.227656, 0.207199, 0.020392, 0.398797, 0.499169, 0.238635, 0.420852, -0.310858, -0.218788, 0.105890, -0.314638, 0.444533, -0.259101, 0.396205, 0.294681, -0.398422, 0.161378, -0.316087, 0.308207, -0.228086, 0.218877, -0.336718, -0.215869, 0.386447, -0.297634, 0.151114, 0.254689, -0.221063, 0.297519]
						},
						{
							"bias":-0.712722, "activationFunction":5, "nb_weights":30,
							"weights": [-0.005702, 0.025175, 0.176800, -0.485310, -0.076029, 0.175969, 0.253325, -0.155177, 0.365111, -0.465463, 0.450713, -0.449527, 0.479070, -0.308388, 0.446678, 0.273751, -0.206810, 0.108056, 0.457664, -0.398603, 0.379970, 0.176540, -0.235321, -0.335899, 0.062987, -0.032955, 0.315215, -0.182324, 0.245982, 0.112735]
						},
						{
							"bias":-0.402203, "activationFunction":5, "nb_weights":30,
							"weights": [-0.259720, -0.362090, 0.464078, -0.245030, 0.061881, 0.140047, -0.491705, 0.406704, 0.005158, -0.457168, 0.357418, 0.055631, -0.478098, -0.450970, 0.002309, 0.295652, -0.157781, -0.389635, 0.253316, -0.056384, 0.490336, -0.070143, 0.208295, -0.345563, 0.492844, -0.324660, 0.469652, -0.189480, 0.421323, 0.082387]
						},
						{
							"bias":-0.397878, "activationFunction":5, "nb_weights":30,
							"weights": [-0.523053, 0.127897, -0.018816, -0.284825, -0.345990, -0.455901, -0.165680, -0.465441, 0.105966, -0.214674, -0.537603, -0.277107, 0.019740, -0.533428, 0.331166, -0.331773, -0.195141, 0.216494, -0.520995, 0.384279, 0.313966, -0.215432, -0.072676, -0.502856, -0.239679, 0.330760, 0.465137, 0.268891, 0.120738, -0.012453]
						},
						{
							"bias":-0.958626, "activationFunction":5, "nb_weights":30,
							"weights": [0.347726, -0.207505, 0.431464, -0.235701, 0.074673, -0.366613, 0.189167, 0.263555, 0.340468, -0.343132, 0.309854, -0.396820, 0.146470, 0.405184, 0.368202, 0.431725, -0.157267, 0.243589, 0.470296, -0.276101, 0.109311, -0.061276, 0.313360, 0.129471, 0.399995, 0.078161, 0.119282, 0.171786, -0.235715, -0.308519]
						},
						{
							"bias":-0.177286, "activationFunction":5, "nb_weights":30,
							"weights": [-0.387989, -0.016024, 0.472837, -0.123690, -0.441352, -0.393776, -0.434523, 0.322203, 0.446692, -0.277655, 0.132057, -0.450128, 0.368816, 0.037241, 0.418073, 0.300540, 0.379975, 0.161662, 0.270836, -0.396126, -0.229027, -0.290440, 0.417234, 0.400444, -0.390445, -0.004605, 0.019726, 0.281340, 0.259679, 0.211207]
						}
					]
				},
				{
					"nb_neurones":6,
					"neurones": [
						{
							"bias":-1.705641, "activationFunction":2, "nb_weights":30,
							"weights": [1.260866, 0.644154, 1.019053, 0.580902, 0.284271, -0.422456, 0.000000, 0.000000, 0.000000, -1.705641, 0.000000, 0.000000, -5.875199, 0.000046, 0.000000, 0.000000, 0.000000, 0.000000, 0.277260, 1.098601, 0.605442, 0.863147, 0.827229, -0.742047, 0.000000, 0.000000, 0.000000, -1.562968, 0.000000, 0.000000]
						},
						{
							"bias":-1.562968, "activationFunction":2, "nb_weights":30,
							"weights": [0.277260, 1.098601, 0.605442, 0.863147, 0.827229, -0.742047, 0.000000, 0.000000, 0.000000, -1.562968, 0.000000, 0.000000, -5.925893, 0.000044, 0.000000, 0.000000, 0.000000, 0.000000, 1.143471, 0.594481, 0.288415, 0.750014, 0.950206, -1.030437, 0.000000, 0.000000, 0.000000, -1.213907, 0.000000, 0.000000]
						},
						{
							"bias":-1.213907, "activationFunction":2, "nb_weights":30,
							"weights": [1.143471, 0.594481, 0.288415, 0.750014, 0.950206, -1.030437, 0.000000, 0.000000, 0.000000, -1.213907, 0.000000, 0.000000, -5.915055, 0.000044, 0.000000, 0.000000, 0.000000, 0.000000, 0.499208, 0.517755, 0.800766, 0.564291, 0.619058, -1.081421, 0.000000, 0.000000, 0.000000, -1.861432, 0.000000, 0.000000]
						},
						{
							"bias":-1.861432, "activationFunction":2, "nb_weights":30,
							"weights": [0.499208, 0.517755, 0.800766, 0.564291, 0.619058, -1.081421, 0.000000, 0.000000, 0.000000, -1.861432, 0.000000, 0.000000, -5.897091, 0.000045, 0.000000, 0.000000, 0.000000, 0.000000, 0.762328, 1.297452, 1.105762, 0.575857, 0.104342, -0.603681, 0.000000, 0.000000, 0.000000, -1.463332, 0.000000, 0.000000]
						},
						{
							"bias":-1.463332, "activationFunction":2, "nb_weights":30,
							"weights": [0.762328, 1.297452, 1.105762, 0.575857, 0.104342, -0.603681, 0.000000, 0.000000, 0.000000, -1.463332, 0.000000, 0.000000, -5.872099, 0.000046, 0.000000, 0.000000, 0.000000, 0.000000, 0.568736, 0.884858, 0.936317, 0.602004, 0.403310, -0.813814, 0.000000, 0.000000, 0.000000, -1.732541, 0.000000, 0.000000]
						},
						{
							"bias":-1.732541, "activationFunction":2, "nb_weights":30,
							"weights": [0.568736, 0.884858, 0.936317, 0.602004, 0.403310, -0.813814, 0.000000, 0.000000, 0.000000, -1.732541, 0.000000, 0.000000, -5.897664, 0.000045, 0.000000, 0.000000, 0.000000, 0.000000, 0.000000, 0.000000, 0.000000, 0.000000, 0.000000, 0.000000, 0.000000, 0.000000, 0.000000, 0.000000, 0.000000, 0.000000]
						}
					]
				}
			]
		},
		{
			"characters":"stuvwx",
			"nb_inputs":1,
			"nb_layers":4,
			"layers": [
				{
					"nb_neurones":30,
					"neurones": [
						{
							"bias":-0.282639, "activationFunction":5, "nb_weights":1,
							"weights": [-0.214249]
						},
						{
							"bias":-0.935470, "activationFunction":5, "nb_weights":1,
							"weights": [-0.236403]
						},
						{
							"bias":-0.436757, "activationFunction":5, "nb_weights":1,
							"weights": [0.559343]
						},
						{
							"bias":0.395154, "activationFunction":5, "nb_weights":1,
							"weights": [0.576928]
						},
						{
							"bias":-0.813112, "activationFunction":5, "nb_weights":1,
							"weights": [-0.079705]
						},
						{
							"bias":-0.194647, "activationFunction":5, "nb_weights":1,
							"weights": [-0.412551]
						},
						{
							"bias":-0.587464, "activationFunction":5, "nb_weights":1,
							"weights": [-0.488142]
						},
						{
							"bias":-0.963161, "activationFunction":5, "nb_weights":1,
							"weights": [-0.154367]
						},
						{
							"bias":-0.480463, "activationFunction":5, "nb_weights":1,
							"weights": [-0.391387]
						},
						{
							"bias":-0.618509, "activationFunction":5, "nb_weights":1,
							"weights": [-0.445200]
						},
						{
							"bias":-0.959678, "activationFunction":5, "nb_weights":1,
							"weights": [-0.444996]
						},
						{
							"bias":-0.270356, "activationFunction":5, "nb_weights":1,
							"weights": [-0.360396]
						},
						{
							"bias":-0.416367, "activationFunction":5, "nb_weights":1,
							"weights": [-0.141555]
						},
						{
							"bias":-0.328424, "activationFunction":5, "nb_weights":1,
							"weights": [-0.236084]
						},
						{
							"bias":-0.133818, "activationFunction":5, "nb_weights":1,
							"weights": [-0.387505]
						},
						{
							"bias":-0.647847, "activationFunction":5, "nb_weights":1,
							"weights": [-0.630008]
						},
						{
							"bias":-0.835765, "activationFunction":5, "nb_weights":1,
							"weights": [-0.102139]
						},
						{
							"bias":-0.524373, "activationFunction":5, "nb_weights":1,
							"weights": [-0.074455]
						},
						{
							"bias":-0.746126, "activationFunction":5, "nb_weights":1,
							"weights": [0.317269]
						},
						{
							"bias":-0.189921, "activationFunction":5, "nb_weights":1,
							"weights": [0.358842]
						},
						{
							"bias":-0.013217, "activationFunction":5, "nb_weights":1,
							"weights": [0.407206]
						},
						{
							"bias":-0.368763, "activationFunction":5, "nb_weights":1,
							"weights": [-0.169441]
						},
						{
							"bias":-0.283170, "activationFunction":5, "nb_weights":1,
							"weights": [-0.517866]
						},
						{
							"bias":-0.434033, "activationFunction":5, "nb_weights":1,
							"weights": [0.277750]
						},
						{
							"bias":-1.105510, "activationFunction":5, "nb_weights":1,
							"weights": [0.220841]
						},
						{
							"bias":-1.025342, "activationFunction":5, "nb_weights":1,
							"weights": [-0.413237]
						},
						{
							"bias":-0.886892, "activationFunction":5, "nb_weights":1,
							"weights": [-0.447618]
						},
						{
							"bias":-0.519753, "activationFunction":5, "nb_weights":1,
							"weights": [-0.070524]
						},
						{
							"bias":-0.886556, "activationFunction":5, "nb_weights":1,
							"weights": [0.307320]
						},
						{
							"bias":-0.893493, "activationFunction":5, "nb_weights":1,
							"weights": [-0.001328]
						}
					]
				},
				{
					"nb_neurones":30,
					"neurones": [
						{
							"bias":-1.090208, "activationFunction":5, "nb_weights":30,
							"weights": [-0.277704, 0.220316, 0.058995, 0.200870, 0.532766, -0.176647, 0.125780, 0.430804, 0.120583, -0.257955, 0.020364, -0.199223, 0.421846, 0.348817, 0.498675, -0.299995, 0.326434, 0.390560, 0.295533, 0.019567, 0.269742, 0.451114, 0.162110, 0.485807, -0.299700, -0.079106, 0.312792, -0.402498, 0.057885, -0.186797]
						},
						{
							"bias":-0.338927, "activationFunction":5, "nb_weights":30,
							"weights": [0.149748, 0.312856, 0.170755, -0.093922, 0.232230, 0.426736, 0.462377, 0.028160, -0.055133, -0.447551, 0.386859, 0.133190, 0.375863, 0.137384, 0.031756, 0.439797, -0.140198, -0.150595, 0.154540, 0.353425, -0.365409, 0.027630, -0.060544, -0.355323, 0.129579, 0.204278, 0.341532, 0.141536, -0.335651, 0.530951]
						},
						{
							"bias":-0.234156, "activationFunction":5, "nb_weights":30,
							"weights": [0.334787, 0.404238, -0.104040, -0.365202, 0.052919, -0.124756, -0.234509, 0.572399, 0.266192, -0.227096, 0.435622, -0.096735, 0.548479, -0.062108, 0.391206, 0.523092, 0.319236, -0.318214, 0.075511, 0.094107, -0.248070, -0.413916, 0.574126, -0.079358, 0.220751, 0.294628, -0.131816, -0.213884, 0.343901, -0.167911]
						},
						{
							"bias":-0.557175, "activationFunction":5, "nb_weights":30,
							"weights": [-0.068835, 0.270228, -0.147707, 0.386020, -0.195495, -0.003691, 0.174524, -0.306168, -0.297918, -0.694083, -0.556705, -0.018488, 0.394130, -0.021985, -0.193712, 0.160486, -0.377677, -0.020035, -0.174171, 0.372479, 0.420633, -0.206694, 0.192779, -0.204284, -0.617313, -0.249383, -0.217833, -0.357154, -0.329251, 0.068597]
						},
						{
							"bias":-0.276529, "activationFunction":5, "nb_weights":30,
							"weights": [0.212119, 0.032236, 0.032238, 0.131664, -0.460644, -0.443679, -0.236477, -0.130383, -0.098246, -0.229119, 0.005403, -0.501312, -0.152540, -0.313817, -0.049714, -0.369454, -0.082305, -0.429702, 0.124652, -0.127774, 0.509909, -0.498960, -0.389027, -0.242789, -0.507423, 0.021403, 0.076970, -0.214193, 0.384224, -0.160148]
						},
						{
							"bias":-0.555288, "activationFunction":5, "nb_weights":30,
							"weights": [0.288899, -0.267916, -0.455189, -0.305668, -0.161292, -0.231740, 0.284576, 0.363652, 0.273331, -0.288745, 0.047224, 0.365576, 0.088608, 0.237628, -0.094682, 0.426504, -0.216213, 0.025125, 0.037637, 0.051048, -0.109076, 0.143101, 0.369960, 0.178724, 0.256244, 0.086781, 0.010679, -0.413310, -0.014152, 0.432804]
						},
						{
							"bias":-0.983103, "activationFunction":5, "nb_weights":30,
							"weights": [-0.324989, -0.493541, 0.110996, -0.042971, -0.226944, 0.320536, -0.344520, -0.451557, 0.012212, -0.221795, -0.002782, -0.184137, 0.319184, -0.318705, 0.167236, 0.150269, -0.118319, -0.366372, -0.341542, 0.457708, 0.065512, 0.248089, 0.250976, -0.259807, -0.065286, -0.261260, 0.154577, -0.038619, 0.173553, 0.020619]
						},
						{
							"bias":-0.971730, "activationFunction":5, "nb_weights":30,
							"weights": [0.348564, 0.027078, 0.127893, -0.194407, 0.300134, -0.051571, -0.038927, 0.348578, 0.460641, 0.239278, -0.154204, -0.223496, 0.058462, 0.027091, 0.443741, -0.291269, 0.408771, -0.422631, -0.132811, 0.366479, 0.142881, -0.384722, 0.117455, 0.383074, 0.049992, 0.356195, 0.037651, -0.488627, 0.029748, -0.441731]
						},
						{
							"bias":-0.276448, "activationFunction":5, "nb_weights":30,
							"weights": [-0.121688, 0.085348, 0.156163, 0.183905, -0.114518, -0.395408, -0.355022, -0.265940, -0.434767, 0.384257, 0.079856, -0.158263, -0.057281, -0.393054, -0.214522, 0.151450, -0.484282, -0.137153, -0.481360, 0.382197, -0.494272, -0.366082, -0.000348, 0.388802, 0.183910, -0.144153, -0.073548, 0.195282, 0.385595, -0.015278]
						},
						{
							"bias":-0.440608, "activationFunction":5, "nb_weights":30,
							"weights": [-0.336568, -0.617298, -0.107967, 0.543959, -0.134220, -0.135412, -0.592046, 0.025458, -0.034418, 0.292564, -0.431231, 0.251028, -0.165649, -0.173545, -0.442866, -0.618986, -0.211891, -0.000846, -0.464086, -0.233064, 0.095324, -0.374313, 0.150508, -0.037162, 0.297243, -0.577949, 0.165914, 0.052706, -0.545146, -0.280196]
						},
						{
							"bias":-0.061236, "activationFunction":5, "nb_weights":30,
							"weights": [-0.220672, -0.084625, 0.206233, -0.272860, 0.370927, -0.309460, -0.180069, 0.060538, 0.240080, -0.203021, 0.330005, 0.131357, 0.216746, -0.293581, 0.308112, 0.287963, 0.098550, -0.152286, 0.377820, 0.372878, 0.393043, -0.398405, 0.146857, -0.172825, -0.490721, 0.276683, -0.312241, 0.112245, 0.292104, 0.033064]
						},
						{
							"bias":-0.040105, "activationFunction":5, "nb_weights":30,
							"weights": [-0.428568, 0.448439, 0.144998, -0.201427, 0.319366, 0.335538, 0.118504, -0.120096, 0.075618, 0.415483, -0.290090, -0.293025, 0.132229, -0.083672, -0.484913, -0.079808, -0.485122, -0.137199, -0.201988, 0.387755, -0.244155, -0.100393, 0.034612, 0.083020, -0.091114, -0.188705, 0.270778, -0.478869, -0.396600, -0.196158]
						},
						{
							"bias":-0.679822, "activationFunction":5, "nb_weights":30,
							"weights": [-0.392724, -0.384602, 0.102243, 0.040335, -0.511511, -0.142419, -0.542652, -0.169502, -0.542660, -0.626986, 0.013982, -0.375614, 0.080058, -0.457283, -0.344739, -0.579444, -0.497240, 0.058789, -0.198174, 0.463860, 0.385975, 0.191191, -0.072010, -0.051374, -0.435170, 0.173464, -0.432080, -0.362678, 0.367726, -0.095595]
						},
						{
							"bias":-0.153517, "activationFunction":5, "nb_weights":30,
							"weights": [-0.335079, 0.382609, 0.249889, 0.035543, 0.390451, -0.234719, 0.285829, -0.110227, -0.255067, 0.292084, 0.575857, 0.020203, -0.133130, -0.449333, 0.243219, -0.006315, -0.318653, -0.211419, 0.272892, -0.378203, -0.392643, 0.049173, 0.186082, 0.046964, 0.228999, 0.073824, 0.398413, 0.369225, -0.089972, -0.124727]
						},
						{
							"bias":-0.179905, "activationFunction":5, "nb_weights":30,
							"weights": [-0.022122, -0.441068, 0.245297, -0.444155, 0.397259, 0.437964, 0.225719, -0.312862, -0.353320, -0.097015, -0.361521, 0.078419, 0.219871, -0.332390, -0.251730, -0.403431, -0.210591, 0.019034, 0.331091, -0.108370, 0.146556, -0.176955, -0.491114, -0.286145, 0.481315, -0.047527, 0.491709, 0.327034, 0.325790, -0.216039]
						},
						{
							"bias":-0.912763, "activationFunction":5, "nb_weights":30,
							"weights": [-0.196332, -0.157107, 0.065392, -0.140487, -0.259848, 0.003356, -0.414768, -0.072710, 0.150035, -0.011783, 0.065770, -0.271545, -0.291912, 0.233380, -0.023275, -0.195343, -0.477211, 0.495759, -0.364251, -0.085581, 0.142315, -0.041206, -0.076695, 0.356170, -0.059891, 0.375778, 0.347879, -0.232857, 0.201568, -0.368160]
						},
						{
							"bias":-0.160025, "activationFunction":5, "nb_weights":30,
							"weights": [-0.494764, -0.025267, 0.152629, -0.135251, 0.214885, -0.344016, -0.050019, -0.357825, 0.306020, 0.438199, 0.207945, -0.465526, -0.353713, -0.058675, 0.011199, -0.049056, -0.035886, 0.006959, 0.086692, 0.378532, -0.350726, -0.454514, -0.198163, -0.494557, -0.014405, -0.322385, 0.353322, 0.252737, 0.379183, 0.485162]
						},
						{
							"bias":-0.054936, "activationFunction":5, "nb_weights":30,
							"weights": [0.384419, -0.040105, -0.007397, -0.250832, -0.325221, 0.148588, 0.199150, -0.183046, -0.045393, 0.137348, -0.475101, -0.010918, 0.283635, -0.033776, -0.499719, -0.265421, 0.430337, 0.007240, 0.321271, 0.308870, 0.156513, 0.366757, -0.389293, 0.161957, -0.147648, -0.211678, 0.015279, -0.394911, -0.332495, 0.000441]
						},
						{
							"bias":-0.470338, "activationFunction":5, "nb_weights":30,
							"weights": [-0.356591, 0.635683, -0.070811, -0.308295, -0.256714, -0.303653, -0.329387, 0.110859, 0.140669, 0.309150, 0.164943, -0.344179, 0.003445, 0.508884, -0.360013, 0.334885, 0.503013, 0.103387, 0.032300, 0.178538, -0.361781, -0.064382, 0.416146, 0.340221, 0.311119, -0.225601, 0.053300, 0.379466, -0.181245, 0.493802]
						},
						{
							"bias":-0.672280, "activationFunction":5, "nb_weights":30,
							"weights": [-0.171145, 0.377537, -0.327630, 0.063514, 0.487479, -0.197745, 0.146086, -0.038043, 0.347363, -0.215797, 0.444431, 0.375180, 0.186044, 0.365677, 0.401994, -0.136431, 0.244723, -0.075419, 0.298365, -0.118831, 0.079931, -0.333267, -0.274485, -0.049318, 0.352896, -0.181316, 0.377171, 0.152671, 0.029188, 0.221487]
						},
						{
							"bias":-1.135878, "activationFunction":5, "nb_weights":30,
							"weights": [0.381197, 0.159861, 0.068993, -0.143786, 0.081834, 0.411699, -0.352581, 0.532461, 0.205127, -0.112708, 0.452155, 0.077842, 0.479742, 0.190974, -0.065044, -0.129910, -0.043933, 0.311638, -0.411049, 0.277227, -0.157335, -0.266112, 0.533351, 0.324318, -0.395883, -0.137540, 0.291042, 0.193286, 0.301269, -0.035630]
						},
						{
							"bias":-0.503961, "activationFunction":5, "nb_weights":30,
							"weights": [-0.011688, 0.249543, 0.089482, 0.576050, -0.206397, -0.163087, -0.634829, -0.317524, -0.514132, -0.372507, -0.525341, -0.040722, -0.373343, 0.232181, 0.333638, -0.214211, -0.456567, 0.123523, -0.091015, 0.417119, -0.400598, 0.069246, 0.267726, 0.386216, 0.033995, -0.569106, -0.104794, -0.278923, 0.254179, 0.289415]
						},
						{
							"bias":-0.111174, "activationFunction":5, "nb_weights":30,
							"weights": [-0.209372, 0.103587, 0.408580, -0.001656, -0.424115, -0.293220, -0.314295, -0.166777, -0.212991, -0.047500, -0.070349, 0.320621, 0.250301, -0.142123, 0.257959, -0.428894, -0.057193, -0.003107, 0.174882, 0.002652, 0.185873, -0.214808, -0.269072, 0.024201, -0.603914, -0.257329, -0.647402, -0.256389, -0.295451, 0.321344]
						},
						{
							"bias":-0.777688, "activationFunction":5, "nb_weights":30,
							"weights": [0.235623, 0.358987, 0.030054, -0.526425, 0.536722, 0.436927, 0.020281, 0.064334, -0.145399, -0.331572, -0.283230, -0.197887, 0.470829, 0.102755, -0.325561, -0.212062, -0.287106, 0.242121, 0.457679, 0.105670, -0.233789, -0.120011, -0.421813, 0.316632, -0.085044, 0.061749, 0.475037, 0.247087, 0.293772, 0.405779]
						},
						{
							"bias":-0.233093, "activationFunction":5, "nb_weights":30,
							"weights": [-0.059524, 0.114948, 0.377630, -0.003149, 0.080312, 0.253743, 0.430973, -0.442428, -0.469197, -0.488512, -0.322447, -0.231403, 0.431560, 0.226367, -0.113803, -0.374311, 0.358277, -0.429291, -0.436402, -0.009043, -0.119981, -0.112037, -0.006141, -0.298539, 0.248320, 0.458006, -0.418290, -0.063749, 0.214718, 0.428323]
						},
						{
							"bias":-0.945206, "activationFunction":5, "nb_weights":30,
							"weights": [-0.344806, 0.043271, 0.144537, 0.152045, -0.376418, -0.101720, 0.083018, -0.318845, -0.070917, 0.094505, -0.141292, 0.197680, 0.026066, -0.414925, -0.416123, 0.151754, 0.443352, -0.345414, 0.215352, -0.065691, 0.034605, -0.396685, 0.428167, 0.236067, 0.351636, 0.386173, 0.317777, -0.212113, 0.100891, 0.246100]
						},
						{
							"bias":-0.223544, "activationFunction":5, "nb_weights":30,
							"weights": [0.256085, -0.210630, 0.199330, -0.091870, -0.087047, -0.402389, 0.491147, 0.094108, 0.026693, 0.085652, 0.452816, -0.275627, -0.388282, -0.462109, -0.191749, 0.263472, 0.481243, -0.037163, -0.021176, -0.084448, 0.497442, 0.082140, -0.156280, 0.233509, -0.066225, -0.270107, 0.051286, 0.221662, 0.330784, -0.202614]
						},
						{
							"bias":-0.172006, "activationFunction":5, "nb_weights":30,
							"weights": [-0.062527, -0.223566, -0.033430, 0.684725, 0.300484, -0.111910, 0.186551, -0.182648, -0.568996, -0.231613, -0.287483, -0.390354, 0.052523, -0.012572, -0.054027, -0.370546, -0.155897, -0.515268, 0.305328, 0.469343, -0.320397, -0.141524, -0.388462, 0.338798, 0.205084, -0.288193, -0.444530, 0.026436, -0.265682, -0.067462]
						},
						{
							"bias":-0.865242, "activationFunction":5, "nb_weights":30,
							"weights": [0.472585, -0.238070, 0.415631, 0.467583, -0.238361, -0.010972, 0.453729, 0.355455, 0.089118, 0.025527, -0.097913, 0.413582, -0.290957, 0.486610, 0.046296, 0.156031, 0.052377, 0.141847, 0.081844, 0.033696, 0.234840, -0.410204, 0.358735, 0.061343, -0.468477, -0.086333, 0.439131, 0.194913, 0.299383, 0.114305]
						},
						{
							"bias":-0.383285, "activationFunction":5, "nb_weights":30,
							"weights": [0.271968, 0.376235, -0.449611, 0.239552, -0.362126, 0.039418, 0.193281, 0.493329, -0.371464, -0.281193, -0.104584, -0.457883, -0.072150, -0.117973, 0.088413, -0.416119, 0.434404, -0.269740, 0.165725, -0.031900, 0.465100, 0.255521, -0.173165, 0.026443, 0.287044, 0.240503, -0.034426, -0.018043, 0.039886, -0.420121]
						}
					]
				},
				{
					"nb_neurones":6,
					"neurones": [
						{
							"bias":-1.063423, "activationFunction":2, "nb_weights":30,
							"weights": [0.350847, 1.251424, 0.938366, -0.894757, -1.111358, 0.308541, 0.000000, 0.000000, 0.000000, -1.063423, 0.000000, 0.000000, -5.878385, 0.000046, 0.000000, 0.000000, 0.000000, 0.000000, 0.253383, 0.831341, 1.433010, -0.584853, -1.015482, 0.627561, 0.000000, 0.000000, 0.000000, -1.148300, 0.000000, 0.000000]
						},
						{
							"bias":-1.148300, "activationFunction":2, "nb_weights":30,
							"weights": [0.253383, 0.831341, 1.433010, -0.584853, -1.015482, 0.627561, 0.000000, 0.000000, 0.000000, -1.148300, 0.000000, 0.000000, -5.853772, 0.000048, 0.000000, 0.000000, 0.000000, 0.000000, 0.923734, 0.645388, 0.948647, -0.682904, -0.952205, 0.281139, 0.000000, 0.000000, 0.000000, -1.519744, 0.000000, 0.000000]
						},
						{
							"bias":-1.519744, "activationFunction":2, "nb_weights":30,
							"weights": [0.923734, 0.645388, 0.948647, -0.682904, -0.952205, 0.281139, 0.000000, 0.000000, 0.000000, -1.519744, 0.000000, 0.000000, -5.912089, 0.000045, 0.000000, 0.000000, 0.000000, 0.000000, 0.953860, 0.891400, 0.965464, -0.304442, -0.886842, 0.263976, 0.000000, 0.000000, 0.000000, -1.644568, 0.000000, 0.000000]
						},
						{
							"bias":-1.644568, "activationFunction":2, "nb_weights":30,
							"weights": [0.953860, 0.891400, 0.965464, -0.304442, -0.886842, 0.263976, 0.000000, 0.000000, 0.000000, -1.644568, 0.000000, 0.000000, -5.872202, 0.000047, 0.000000, 0.000000, 0.000000, 0.000000, 0.858805, 0.458028, 0.984147, -0.707593, -0.949814, 0.495236, 0.000000, 0.000000, 0.000000, -1.499125, 0.000000, 0.000000]
						},
						{
							"bias":-1.499125, "activationFunction":2, "nb_weights":30,
							"weights": [0.858805, 0.458028, 0.984147, -0.707593, -0.949814, 0.495236, 0.000000, 0.000000, 0.000000, -1.499125, 0.000000, 0.000000, -5.908703, 0.000045, 0.000000, 0.000000, 0.000000, 0.000000, 0.383759, 1.058375, 1.360231, -0.636495, -0.316649, 1.110056, 0.000000, 0.000000, 0.000000, -1.064718, 0.000000, 0.000000]
						},
						{
							"bias":-1.064718, "activationFunction":2, "nb_weights":30,
							"weights": [0.383759, 1.058375, 1.360231, -0.636495, -0.316649, 1.110056, 0.000000, 0.000000, 0.000000, -1.064718, 0.000000, 0.000000, -5.881321, 0.000046, 0.000000, 0.000000, 0.000000, 0.000000, 0.000000, 0.000000, 0.000000, 0.000000, 0.000000, 0.000000, 0.000000, 0.000000, 0.000000, 0.000000, 0.000000, 0.000000]
						}
					]
				}
			]
		},
		{
			"characters":"yz0123",
			"nb_inputs":1,
			"nb_layers":4,
			"layers": [
				{
					"nb_neurones":30,
					"neurones": [
						{
							"bias":-0.874710, "activationFunction":5, "nb_weights":1,
							"weights": [-0.343976]
						},
						{
							"bias":-0.862111, "activationFunction":5, "nb_weights":1,
							"weights": [-0.064374]
						},
						{
							"bias":-0.732590, "activationFunction":5, "nb_weights":1,
							"weights": [0.009396]
						},
						{
							"bias":0.079984, "activationFunction":5, "nb_weights":1,
							"weights": [0.156974]
						},
						{
							"bias":-0.491142, "activationFunction":5, "nb_weights":1,
							"weights": [0.096547]
						},
						{
							"bias":-0.598579, "activationFunction":5, "nb_weights":1,
							"weights": [0.373057]
						},
						{
							"bias":-0.792021, "activationFunction":5, "nb_weights":1,
							"weights": [-0.447745]
						},
						{
							"bias":-0.406791, "activationFunction":5, "nb_weights":1,
							"weights": [0.275330]
						},
						{
							"bias":-0.495926, "activationFunction":5, "nb_weights":1,
							"weights": [0.110401]
						},
						{
							"bias":-0.574981, "activationFunction":5, "nb_weights":1,
							"weights": [0.207273]
						},
						{
							"bias":0.133688, "activationFunction":5, "nb_weights":1,
							"weights": [0.454815]
						},
						{
							"bias":-0.518530, "activationFunction":5, "nb_weights":1,
							"weights": [0.900387]
						},
						{
							"bias":-0.540405, "activationFunction":5, "nb_weights":1,
							"weights": [-0.391064]
						},
						{
							"bias":-0.489813, "activationFunction":5, "nb_weights":1,
							"weights": [0.398287]
						},
						{
							"bias":0.356111, "activationFunction":5, "nb_weights":1,
							"weights": [0.496292]
						},
						{
							"bias":0.320185, "activationFunction":5, "nb_weights":1,
							"weights": [0.361704]
						},
						{
							"bias":-0.923132, "activationFunction":5, "nb_weights":1,
							"weights": [-0.322586]
						},
						{
							"bias":-1.023206, "activationFunction":5, "nb_weights":1,
							"weights": [-0.334069]
						},
						{
							"bias":0.008591, "activationFunction":5, "nb_weights":1,
							"weights": [0.393842]
						},
						{
							"bias":-0.548759, "activationFunction":5, "nb_weights":1,
							"weights": [-0.483368]
						},
						{
							"bias":-0.342374, "activationFunction":5, "nb_weights":1,
							"weights": [-0.239295]
						},
						{
							"bias":0.072599, "activationFunction":5, "nb_weights":1,
							"weights": [0.552072]
						},
						{
							"bias":-0.623853, "activationFunction":5, "nb_weights":1,
							"weights": [-0.253623]
						},
						{
							"bias":-1.022542, "activationFunction":5, "nb_weights":1,
							"weights": [-0.240838]
						},
						{
							"bias":-0.915208, "activationFunction":5, "nb_weights":1,
							"weights": [-0.429891]
						},
						{
							"bias":0.065321, "activationFunction":5, "nb_weights":1,
							"weights": [0.228311]
						},
						{
							"bias":-0.688063, "activationFunction":5, "nb_weights":1,
							"weights": [-0.601377]
						},
						{
							"bias":-0.768267, "activationFunction":5, "nb_weights":1,
							"weights": [0.314105]
						},
						{
							"bias":-0.192110, "activationFunction":5, "nb_weights":1,
							"weights": [-0.504416]
						},
						{
							"bias":-0.500808, "activationFunction":5, "nb_weights":1,
							"weights": [0.263953]
						}
					]
				},
				{
					"nb_neurones":30,
					"neurones": [
						{
							"bias":-0.524079, "activationFunction":5, "nb_weights":30,
							"weights": [0.544343, 0.050513, 0.222682, -0.380743, 0.131483, 0.462212, -0.093054, -0.182573, 0.278210, -0.159782, 0.180460, -0.274948, -0.173179, 0.109916, -0.506790, 0.015835, -0.123330, 0.201404, 0.172213, 0.021482, 0.269777, -0.262638, -0.098125, 0.487830, 0.559887, -0.307006, -0.153768, 0.553101, -0.212455, -0.370894]
						},
						{
							"bias":-1.088138, "activationFunction":5, "nb_weights":30,
							"weights": [-0.304547, 0.178117, -0.080091, -0.337393, -0.309141, -0.189115, 0.084230, -0.017887, 0.548667, 0.273987, -0.359811, -0.261646, 0.532575, 0.336628, -0.265631, -0.079244, -0.280747, 0.530346, -0.321856, 0.060599, 0.109508, -0.028238, 0.291022, 0.016322, 0.114834, 0.381932, 0.183066, -0.008659, -0.316097, 0.144704]
						},
						{
							"bias":-0.212718, "activationFunction":5, "nb_weights":30,
							"weights": [-0.551850, -0.414928, -0.112331, -0.196346, -0.179006, 0.185829, 0.067263, 0.275947, 0.176996, -0.136764, -0.394686, 0.448675, -0.313509, 0.387531, -0.111250, 0.382928, 0.265197, -0.522547, -0.420372, -0.326511, 0.111090, 0.180577, -0.598268, -0.634590, -0.633524, 0.424136, -0.121194, -0.099954, 0.358562, -0.322796]
						},
						{
							"bias":-0.412313, "activationFunction":5, "nb_weights":30,
							"weights": [-0.625820, -0.267060, -0.547129, -0.116693, 0.192747, 0.235170, -0.626389, 0.015851, -0.046220, -0.088271, 0.184244, -0.016015, 0.135718, -0.027896, 0.401767, 0.217198, -0.316154, 0.202155, 0.215331, 0.020892, -0.000265, -0.138232, 0.079129, -0.085822, -0.427744, 0.152495, -0.549022, 0.168177, -0.051729, -0.173083]
						},
						{
							"bias":-0.568638, "activationFunction":5, "nb_weights":30,
							"weights": [0.020869, 0.111816, -0.177445, -0.467540, -0.070021, -0.354557, -0.563039, -0.510281, 0.157342, 0.006569, 0.169619, -0.318694, -0.258147, -0.431044, 0.540763, 0.547755, -0.197342, 0.212175, 0.174887, -0.475935, -0.108559, 0.460983, 0.278569, -0.570212, -0.484772, 0.020250, -0.415706, 0.361148, -0.513237, 0.061331]
						},
						{
							"bias":-0.551249, "activationFunction":5, "nb_weights":30,
							"weights": [0.351744, -0.124046, 0.200612, 0.219744, 0.271897, 0.339441, 0.432417, 0.262636, 0.054127, -0.088425, -0.208138, 0.162798, 0.338818, -0.087520, 0.069402, 0.146850, 0.474764, 0.131652, -0.195626, -0.372021, 0.546215, -0.331172, 0.490047, -0.338049, 0.014755, -0.133478, -0.107840, -0.145665, 0.070612, 0.355806]
						},
						{
							"bias":-0.425972, "activationFunction":5, "nb_weights":30,
							"weights": [-0.260096, -0.366338, -0.282033, 0.495813, 0.380762, -0.454052, 0.322533, 0.142404, 0.075759, -0.292512, -0.498410, -0.215432, 0.454530, -0.078532, 0.443100, 0.179513, -0.209378, -0.034277, -0.464461, -0.179244, -0.053969, -0.225696, -0.273285, 0.001439, 0.180363, 0.130244, 0.285801, -0.498680, -0.377172, 0.134919]
						},
						{
							"bias":-0.411838, "activationFunction":5, "nb_weights":30,
							"weights": [-0.137268, 0.268580, 0.291995, -0.141455, 0.149343, 0.337943, -0.318922, -0.208253, -0.086298, -0.111435, -0.206663, 0.198270, -0.156905, 0.214805, 0.141371, -0.477391, -0.494573, -0.392907, -0.441852, -0.173817, 0.053125, -0.167548, 0.052898, -0.445436, -0.487186, -0.316858, 0.340365, -0.485866, -0.194030, -0.024716]
						},
						{
							"bias":-0.031697, "activationFunction":5, "nb_weights":30,
							"weights": [0.168701, -0.256135, -0.119842, -0.472754, 0.393207, -0.281899, -0.291676, -0.315046, 0.131803, 0.096889, -0.021709, -0.169926, 0.439984, -0.306904, 0.471445, 0.462593, -0.301477, -0.421462, -0.479259, 0.024706, 0.131663, -0.146808, -0.422397, 0.186227, -0.133994, -0.239254, 0.026592, -0.119860, 0.066716, -0.498124]
						},
						{
							"bias":-0.627392, "activationFunction":5, "nb_weights":30,
							"weights": [-0.497621, -0.400396, -0.214697, -0.193837, -0.366023, 0.025664, -0.249614, -0.199769, -0.340522, -0.483442, 0.423147, -0.002452, -0.700355, 0.543223, 0.131000, 0.565435, -0.562557, -0.186289, 0.561249, -0.024701, -0.396804, -0.023355, 0.134087, 0.145368, -0.055391, -0.401175, -0.323466, -0.454964, -0.058544, -0.034174]
						},
						{
							"bias":-0.165821, "activationFunction":5, "nb_weights":30,
							"weights": [0.358998, 0.170521, -0.092704, -0.378339, 0.309470, 0.473858, 0.092648, -0.366628, -0.327777, 0.160524, 0.435565, 0.200662, 0.168385, 0.430853, -0.299454, 0.138838, -0.375335, 0.278968, 0.130032, 0.343182, 0.489053, 0.474418, 0.139302, 0.385365, 0.184811, 0.196168, -0.191731, 0.275344, -0.180250, 0.233049]
						},
						{
							"bias":-0.240412, "activationFunction":5, "nb_weights":30,
							"weights": [-0.321252, -0.096430, -0.258524, -0.199590, -0.286960, -0.284666, 0.393058, -0.153589, -0.112443, 0.053582, -0.218024, -0.411781, -0.278033, -0.287170, -0.211234, 0.360804, -0.162506, -0.432266, -0.009164, -0.319324, -0.443213, -0.034746, 0.319978, 0.442151, -0.349935, 0.016146, -0.249580, 0.425408, 0.335896, 0.483469]
						},
						{
							"bias":-0.035090, "activationFunction":5, "nb_weights":30,
							"weights": [-0.723359, -0.288547, -0.606931, -0.163836, 0.056773, -0.363672, -0.516028, 0.386461, 0.024008, 0.167388, -0.162190, 0.132526, 0.274802, -0.039139, 0.603784, 0.423967, 0.015201, -0.724640, -0.113567, 0.211384, -0.486767, 0.422275, 0.120342, -0.710314, 0.176105, -0.184617, -0.454834, 0.286752, -0.545550, -0.208294]
						},
						{
							"bias":-0.356755, "activationFunction":5, "nb_weights":30,
							"weights": [-0.205480, 0.264589, 0.185199, -0.045064, -0.220544, 0.403311, 0.303688, -0.245096, -0.000357, -0.016997, -0.118534, -0.282228, 0.046159, 0.363490, -0.425285, -0.266132, 0.333290, -0.145395, 0.073088, 0.284474, -0.169634, -0.174825, -0.000645, -0.003969, 0.022799, 0.190329, 0.288088, -0.234574, 0.440119, 0.388124]
						},
						{
							"bias":-0.375178, "activationFunction":5, "nb_weights":30,
							"weights": [0.475774, 0.079957, -0.006090, -0.063043, 0.348575, -0.153014, -0.393749, -0.436317, 0.304016, 0.037239, 0.007256, 0.453219, 0.451888, -0.107874, -0.416638, -0.288999, -0.444214, -0.237822, 0.305416, 0.178912, 0.046454, -0.299615, -0.418519, 0.378341, 0.045974, 0.279640, 0.008260, 0.267591, 0.109285, -0.080322]
						},
						{
							"bias":-0.227416, "activationFunction":5, "nb_weights":30,
							"weights": [0.085059, 0.499635, -0.381267, -0.477984, 0.348210, -0.034282, -0.371732, 0.411893, -0.230266, 0.165507, -0.080851, -0.277047, 0.117395, 0.311275, -0.193684, 0.328396, 0.367061, 0.068494, 0.133812, 0.045973, -0.385052, 0.334197, 0.127454, 0.493289, -0.119829, -0.092906, 0.001549, -0.352239, -0.483621, 0.421227]
						},
						{
							"bias":-0.368454, "activationFunction":5, "nb_weights":30,
							"weights": [0.101439, 0.420862, 0.391316, 0.123455, 0.269072, -0.142965, 0.251723, 0.180965, 0.126769, -0.082770, -0.399886, 0.349722, -0.465375, 0.411389, -0.343962, 0.363021, 0.278450, 0.224532, -0.003167, -0.175577, 0.339479, -0.168970, 0.451877, 0.332768, 0.211201, -0.141029, -0.165683, 0.358962, -0.124649, -0.244457]
						},
						{
							"bias":-0.303585, "activationFunction":5, "nb_weights":30,
							"weights": [0.476790, -0.323595, 0.022862, 0.100245, 0.445477, 0.379897, -0.148032, 0.126442, 0.006666, 0.269198, 0.226556, -0.143612, 0.303823, 0.137945, 0.012426, 0.166844, -0.083604, -0.263042, -0.336323, 0.240819, -0.423563, -0.005293, 0.192696, 0.409205, -0.294092, -0.448332, -0.256478, -0.435130, -0.072981, -0.000935]
						},
						{
							"bias":-0.893673, "activationFunction":5, "nb_weights":30,
							"weights": [-0.005485, 0.251444, -0.223687, -0.513659, 0.151894, -0.374156, -0.053963, -0.235326, 0.141033, -0.335972, 0.424147, 0.447855, 0.507670, 0.113234, -0.092090, 0.042024, -0.377065, 0.309758, 0.227340, 0.356603, 0.335153, -0.299067, 0.028538, 0.291814, 0.058219, -0.004296, 0.535685, 0.067731, 0.506346, -0.047941]
						},
						{
							"bias":-0.594657, "activationFunction":5, "nb_weights":30,
							"weights": [-0.027208, -0.281703, 0.011167, -0.170559, 0.270177, 0.079577, 0.329438, 0.511426, -0.308250, 0.382764, 0.392377, -0.388300, 0.370695, 0.064286, -0.000901, -0.208737, 0.235470, -0.062963, -0.423882, -0.004705, -0.357660, -0.203126, 0.417744, 0.415851, 0.471464, -0.174897, 0.356027, -0.091666, -0.121970, -0.333983]
						},
						{
							"bias":0.072013, "activationFunction":5, "nb_weights":30,
							"weights": [-0.035898, -0.351551, -0.570661, 0.506140, -0.529403, 0.013833, 0.019241, 0.468254, 0.149311, -0.052460, 0.540347, 0.322013, -0.374444, 0.032100, 0.007476, 0.213492, -0.551790, 0.008042, 0.292517, -0.173271, 0.186272, -0.300261, -0.298965, -0.123039, 0.255122, 0.185665, -0.402974, -0.278531, 0.318658, -0.077548]
						},
						{
							"bias":-0.211018, "activationFunction":5, "nb_weights":30,
							"weights": [-0.123385, 0.046594, 0.263987, 0.080551, 0.156646, -0.119531, -0.466476, 0.177360, -0.433998, 0.153746, 0.268422, 0.470846, 0.333738, -0.311290, -0.024781, 0.233347, -0.392945, -0.684431, -0.074161, 0.108711, 0.193585, 0.074948, -0.529205, -0.359987, -0.310396, 0.304401, -0.092024, 0.098596, 0.068994, -0.482392]
						},
						{
							"bias":-0.004259, "activationFunction":5, "nb_weights":30,
							"weights": [-0.336729, 0.153092, -0.133962, 0.329861, -0.069214, 0.318287, -0.566487, -0.360950, 0.451174, 0.224944, 0.384999, 0.415661, 0.174024, -0.474626, -0.163015, -0.060548, -0.297519, -0.332270, 0.279584, -0.495753, -0.460018, -0.224859, -0.345471, -0.194574, -0.015309, 0.506425, -0.585040, -0.250340, 0.121788, -0.428979]
						},
						{
							"bias":-0.626332, "activationFunction":5, "nb_weights":30,
							"weights": [0.581675, 0.395747, -0.171788, 0.281296, -0.197501, -0.347454, 0.440552, -0.043687, -0.346534, 0.157172, -0.285800, -0.463035, -0.026648, -0.211303, -0.249470, 0.222322, 0.218038, 0.227782, -0.001176, 0.329868, 0.257563, 0.191266, 0.535570, -0.262850, -0.028623, 0.440965, -0.227953, 0.206345, 0.238307, -0.248668]
						},
						{
							"bias":-0.123419, "activationFunction":5, "nb_weights":30,
							"weights": [0.146769, -0.449615, 0.267044, -0.053100, -0.180890, 0.389602, -0.211855, 0.255730, -0.495943, 0.402209, -0.475545, -0.445198, -0.211325, -0.188044, -0.121694, -0.430471, 0.425139, 0.497356, 0.103244, 0.158025, 0.203355, -0.146867, 0.120429, 0.335867, 0.215885, 0.080108, -0.497062, -0.124850, -0.254596, -0.258740]
						},
						{
							"bias":-0.188375, "activationFunction":5, "nb_weights":30,
							"weights": [0.392173, -0.208356, 0.143625, -0.160927, 0.110754, 0.033227, 0.127219, -0.133516, 0.037283, 0.029428, -0.109061, 0.092086, 0.318103, 0.202895, 0.470392, 0.387632, 0.128034, 0.467748, -0.009124, -0.213940, 0.171104, 0.344009, 0.406488, 0.006971, 0.059895, -0.013403, 0.009908, 0.435045, 0.232001, 0.251168]
						},
						{
							"bias":-0.532921, "activationFunction":5, "nb_weights":30,
							"weights": [0.124174, -0.457188, -0.044750, 0.463247, 0.153566, 0.488477, 0.090466, -0.479950, 0.025760, -0.380106, -0.089010, -0.382154, 0.437997, -0.386115, -0.411762, 0.325629, 0.241920, -0.444014, -0.183495, -0.472021, 0.227089, -0.339486, 0.434468, -0.265940, 0.220409, -0.078936, 0.243968, 0.155454, -0.346935, -0.004864]
						},
						{
							"bias":-0.137156, "activationFunction":5, "nb_weights":30,
							"weights": [0.041117, -0.139849, 0.312224, 0.258907, -0.353777, 0.327389, -0.390982, -0.351929, -0.146193, -0.146508, 0.228982, -0.010886, -0.318099, 0.254139, 0.262056, -0.207885, -0.283806, -0.073296, 0.078752, -0.240321, -0.164580, 0.310481, -0.215592, -0.096545, -0.361253, 0.378038, -0.347392, -0.524537, -0.660253, 0.407495]
						},
						{
							"bias":-0.846079, "activationFunction":5, "nb_weights":30,
							"weights": [0.292173, -0.063163, -0.043239, 0.032659, 0.128350, -0.132433, 0.363611, 0.339914, 0.304134, -0.185543, -0.037532, -0.141454, 0.203300, -0.301094, -0.498804, 0.417771, 0.177264, 0.199832, -0.051253, -0.316398, -0.374443, -0.359763, 0.124407, 0.285343, 0.052137, -0.013724, -0.310904, 0.119489, 0.001210, -0.412015]
						},
						{
							"bias":-0.460287, "activationFunction":5, "nb_weights":30,
							"weights": [-0.206617, 0.024822, 0.110682, 0.326042, -0.346828, 0.478250, 0.189653, 0.493086, 0.282384, -0.495890, -0.044446, -0.359070, 0.207410, 0.154460, -0.357874, 0.125182, -0.168275, 0.341958, -0.426071, 0.015326, 0.467516, -0.285833, -0.360267, 0.252858, 0.266303, 0.126010, 0.441954, -0.114208, -0.372780, -0.470061]
						}
					]
				},
				{
					"nb_neurones":6,
					"neurones": [
						{
							"bias":-1.050733, "activationFunction":2, "nb_weights":30,
							"weights": [0.732895, 0.936380, -1.213005, -0.899376, -0.701299, 0.383004, 0.000000, 0.000000, 0.000000, -1.050733, 0.000000, 0.000000, -5.869534, 0.000047, 0.000000, 0.000000, 0.000000, 0.000000, 0.843763, 1.108874, -0.243495, -0.857880, -1.169478, 0.757725, 0.000000, 0.000000, 0.000000, -0.973523, 0.000000, 0.000000]
						},
						{
							"bias":-0.973523, "activationFunction":2, "nb_weights":30,
							"weights": [0.843763, 1.108874, -0.243495, -0.857880, -1.169478, 0.757725, 0.000000, 0.000000, 0.000000, -0.973523, 0.000000, 0.000000, -5.903301, 0.000045, 0.000000, 0.000000, 0.000000, 0.000000, 0.298079, 0.423486, -0.995701, -0.957574, -0.823087, 0.730587, 0.000000, 0.000000, 0.000000, -1.720651, 0.000000, 0.000000]
						},
						{
							"bias":-1.720651, "activationFunction":2, "nb_weights":30,
							"weights": [0.298079, 0.423486, -0.995701, -0.957574, -0.823087, 0.730587, 0.000000, 0.000000, 0.000000, -1.720651, 0.000000, 0.000000, -5.903824, 0.000045, 0.000000, 0.000000, 0.000000, 0.000000, 0.767679, 1.064838, -0.495213, -0.737422, -0.868053, 0.861302, 0.000000, 0.000000, 0.000000, -1.146989, 0.000000, 0.000000]
						},
						{
							"bias":-1.146989, "activationFunction":2, "nb_weights":30,
							"weights": [0.767679, 1.064838, -0.495213, -0.737422, -0.868053, 0.861302, 0.000000, 0.000000, 0.000000, -1.146989, 0.000000, 0.000000, -5.891664, 0.000046, 0.000000, 0.000000, 0.000000, 0.000000, 0.743433, 0.967833, -0.975008, -0.107585, -0.974171, 0.548353, 0.000000, 0.000000, 0.000000, -1.593807, 0.000000, 0.000000]
						},
						{
							"bias":-1.593807, "activationFunction":2, "nb_weights":30,
							"weights": [0.743433, 0.967833, -0.975008, -0.107585, -0.974171, 0.548353, 0.000000, 0.000000, 0.000000, -1.593807, 0.000000, 0.000000, -5.871154, 0.000047, 0.000000, 0.000000, 0.000000, 0.000000, 1.244093, 0.847247, -1.144710, -0.413451, -0.897899, 0.301897, 0.000000, 0.000000, 0.000000, -1.063405, 0.000000, 0.000000]
						},
						{
							"bias":-1.063405, "activationFunction":2, "nb_weights":30,
							"weights": [1.244093, 0.847247, -1.144710, -0.413451, -0.897899, 0.301897, 0.000000, 0.000000, 0.000000, -1.063405, 0.000000, 0.000000, -5.868841, 0.000047, 0.000000, 0.000000, 0.000000, 0.000000, 0.000000, 0.000000, 0.000000, 0.000000, 0.000000, 0.000000, 0.000000, 0.000000, 0.000000, 0.000000, 0.000000, 0.000000]
						}
					]
				}
			]
		},
		{
			"characters":"456789",
			"nb_inputs":1,
			"nb_layers":4,
			"layers": [
				{
					"nb_neurones":30,
					"neurones": [
						{
							"bias":-0.513080, "activationFunction":5, "nb_weights":1,
							"weights": [-0.260968]
						},
						{
							"bias":-0.270396, "activationFunction":5, "nb_weights":1,
							"weights": [0.199981]
						},
						{
							"bias":-0.464612, "activationFunction":5, "nb_weights":1,
							"weights": [-0.751179]
						},
						{
							"bias":-0.827045, "activationFunction":5, "nb_weights":1,
							"weights": [0.014647]
						},
						{
							"bias":-0.685456, "activationFunction":5, "nb_weights":1,
							"weights": [-0.453605]
						},
						{
							"bias":-0.913205, "activationFunction":5, "nb_weights":1,
							"weights": [0.252257]
						},
						{
							"bias":-0.826409, "activationFunction":5, "nb_weights":1,
							"weights": [-0.097000]
						},
						{
							"bias":-0.973756, "activationFunction":5, "nb_weights":1,
							"weights": [-0.044292]
						},
						{
							"bias":-0.548602, "activationFunction":5, "nb_weights":1,
							"weights": [0.682670]
						},
						{
							"bias":-0.945888, "activationFunction":5, "nb_weights":1,
							"weights": [0.248416]
						},
						{
							"bias":-0.794712, "activationFunction":5, "nb_weights":1,
							"weights": [-0.284690]
						},
						{
							"bias":-0.601896, "activationFunction":5, "nb_weights":1,
							"weights": [0.095244]
						},
						{
							"bias":-1.049106, "activationFunction":5, "nb_weights":1,
							"weights": [-0.515897]
						},
						{
							"bias":-0.237126, "activationFunction":5, "nb_weights":1,
							"weights": [-0.034648]
						},
						{
							"bias":-0.571950, "activationFunction":5, "nb_weights":1,
							"weights": [-0.149187]
						},
						{
							"bias":-1.178250, "activationFunction":5, "nb_weights":1,
							"weights": [-0.068421]
						},
						{
							"bias":-0.893252, "activationFunction":5, "nb_weights":1,
							"weights": [-0.363772]
						},
						{
							"bias":-0.615597, "activationFunction":5, "nb_weights":1,
							"weights": [0.232537]
						},
						{
							"bias":-0.572250, "activationFunction":5, "nb_weights":1,
							"weights": [-0.388393]
						},
						{
							"bias":-0.160701, "activationFunction":5, "nb_weights":1,
							"weights": [0.484490]
						},
						{
							"bias":-0.006904, "activationFunction":5, "nb_weights":1,
							"weights": [0.072299]
						},
						{
							"bias":-0.398089, "activationFunction":5, "nb_weights":1,
							"weights": [0.290869]
						},
						{
							"bias":-0.587941, "activationFunction":5, "nb_weights":1,
							"weights": [0.291928]
						},
						{
							"bias":0.186345, "activationFunction":5, "nb_weights":1,
							"weights": [0.654369]
						},
						{
							"bias":-0.283956, "activationFunction":5, "nb_weights":1,
							"weights": [0.225147]
						},
						{
							"bias":-0.917856, "activationFunction":5, "nb_weights":1,
							"weights": [-0.294184]
						},
						{
							"bias":-0.459686, "activationFunction":5, "nb_weights":1,
							"weights": [-0.723130]
						},
						{
							"bias":-0.581263, "activationFunction":5, "nb_weights":1,
							"weights": [0.173902]
						},
						{
							"bias":-0.839248, "activationFunction":5, "nb_weights":1,
							"weights": [0.556840]
						},
						{
							"bias":-0.477471, "activationFunction":5, "nb_weights":1,
							"weights": [-0.425449]
						}
					]
				},
				{
					"nb_neurones":30,
					"neurones": [
						{
							"bias":-0.383877, "activationFunction":5, "nb_weights":30,
							"weights": [0.076286, 0.289456, -0.104144, -0.547445, -0.486829, -0.239168, -0.157922, -0.308216, 0.366863, -0.302662, -0.701525, -0.494262, -0.692202, 0.369013, 0.219135, -0.678984, -0.200488, 0.161316, 0.263633, -0.081942, -0.020583, -0.403865, -0.158265, 0.223346, 0.388558, 0.075030, 0.057230, 0.153011, 0.220869, 0.137484]
						},
						{
							"bias":-0.430188, "activationFunction":5, "nb_weights":30,
							"weights": [0.129901, 0.138935, 0.570336, 0.264861, 0.428013, -0.091063, -0.166025, -0.199931, -0.269495, 0.142024, -0.156057, -0.076762, 0.263698, -0.323866, -0.221928, 0.269661, 0.291886, 0.496807, 0.223067, 0.448017, 0.041896, 0.231205, -0.111576, -0.524934, 0.103352, -0.171888, 0.462597, -0.002386, -0.400609, 0.288003]
						},
						{
							"bias":-0.788228, "activationFunction":5, "nb_weights":30,
							"weights": [0.154968, -0.187122, 0.280983, -0.177860, -0.280584, -0.423688, 0.040624, -0.103732, -0.279477, -0.422312, 0.116264, 0.136116, 0.228484, 0.189885, 0.350833, -0.139807, -0.077075, 0.265167, 0.450048, -0.224663, -0.269280, 0.096912, 0.215644, -0.282305, -0.309167, 0.469002, -0.264100, 0.142135, 0.435962, 0.391787]
						},
						{
							"bias":-0.257615, "activationFunction":5, "nb_weights":30,
							"weights": [-0.101518, -0.375739, -0.600962, 0.139326, -0.366849, -0.519210, -0.438858, -0.053758, -0.236018, -0.373179, -0.552892, 0.298613, 0.162255, 0.183621, 0.036641, -0.561429, -0.573172, -0.184558, 0.306373, -0.085918, 0.045138, -0.000471, -0.454042, 0.452713, 0.190462, 0.287618, -0.610113, -0.280439, 0.276469, 0.203364]
						},
						{
							"bias":-0.617068, "activationFunction":5, "nb_weights":30,
							"weights": [-0.320202, 0.405954, -0.075751, -0.640787, -0.496555, 0.016250, -0.508844, 0.030989, 0.354526, -0.284084, 0.055543, 0.109058, -0.585847, -0.073201, -0.273648, -0.495318, -0.171296, 0.091101, -0.577463, 0.441588, -0.343833, 0.074549, 0.399265, -0.270145, -0.234929, 0.118162, -0.583171, -0.117054, 0.027974, 0.229474]
						},
						{
							"bias":-0.736760, "activationFunction":5, "nb_weights":30,
							"weights": [0.479361, 0.327596, 0.325190, 0.497043, 0.539426, -0.077374, -0.312308, 0.237021, -0.229145, 0.006532, 0.008646, 0.527494, 0.189596, 0.417714, -0.136710, 0.357414, 0.001751, 0.517983, 0.453383, -0.233785, -0.247986, -0.034071, -0.274032, -0.246076, 0.220695, -0.348836, -0.004942, -0.183593, 0.246090, -0.102093]
						},
						{
							"bias":-0.832383, "activationFunction":5, "nb_weights":30,
							"weights": [0.125951, -0.360100, -0.380446, 0.058800, -0.387405, -0.007892, 0.163640, 0.276337, 0.250474, -0.385661, -0.306294, 0.229609, 0.201968, -0.411665, -0.456846, -0.023911, 0.002798, -0.472768, -0.151487, 0.297012, -0.255037, 0.310479, -0.485603, 0.059855, 0.034852, -0.433773, 0.472005, 0.287502, 0.262217, -0.211132]
						},
						{
							"bias":-0.448035, "activationFunction":5, "nb_weights":30,
							"weights": [-0.111832, -0.071232, -0.212829, 0.446968, 0.041363, 0.279279, 0.110608, -0.182301, 0.029753, 0.224946, 0.011406, -0.240638, -0.073086, 0.099740, -0.197484, 0.403002, -0.397462, -0.170252, -0.248485, 0.399550, 0.074711, -0.438006, 0.413947, -0.365434, 0.096846, 0.480175, -0.393429, -0.115652, 0.242392, -0.104561]
						},
						{
							"bias":-0.410334, "activationFunction":5, "nb_weights":30,
